digraph Tree {
node [shape=box, style="filled", color="black"] ;
0 [label="txt <= 0.065\ngini = 0.232\nsamples = 4179\nvalue = [3619, 560]\nclass = ham", fillcolor="#e99458"] ;
1 [label="claim <= 0.081\ngini = 0.194\nsamples = 4050\nvalue = [3610, 440]\nclass = ham", fillcolor="#e89051"] ;
0 -> 1 [labeldistance=2.5, labelangle=45, headlabel="True"] ;
2 [label="free <= 0.142\ngini = 0.169\nsamples = 3982\nvalue = [3610, 372]\nclass = ham", fillcolor="#e88e4d"] ;
1 -> 2 ;
3 [label="servic <= 0.084\ngini = 0.143\nsamples = 3874\nvalue = [3574, 300]\nclass = ham", fillcolor="#e78c4a"] ;
2 -> 3 ;
4 [label="www <= 0.082\ngini = 0.126\nsamples = 3832\nvalue = [3572, 260]\nclass = ham", fillcolor="#e78a47"] ;
3 -> 4 ;
5 [label="box <= 0.106\ngini = 0.113\nsamples = 3799\nvalue = [3571, 228]\nclass = ham", fillcolor="#e78946"] ;
4 -> 5 ;
6 [label="text <= 0.134\ngini = 0.099\nsamples = 3764\nvalue = [3567, 197]\nclass = ham", fillcolor="#e68844"] ;
5 -> 6 ;
7 [label="privat <= 0.163\ngini = 0.081\nsamples = 3668\nvalue = [3512, 156]\nclass = ham", fillcolor="#e68742"] ;
6 -> 7 ;
8 [label="uk <= 0.085\ngini = 0.076\nsamples = 3656\nvalue = [3511, 145]\nclass = ham", fillcolor="#e68641"] ;
7 -> 8 ;
9 [label="award <= 0.127\ngini = 0.071\nsamples = 3645\nvalue = [3510, 135]\nclass = ham", fillcolor="#e68641"] ;
8 -> 9 ;
10 [label="admir <= 0.173\ngini = 0.067\nsamples = 3635\nvalue = [3509, 126]\nclass = ham", fillcolor="#e68640"] ;
9 -> 10 ;
11 [label="mobil <= 0.075\ngini = 0.063\nsamples = 3627\nvalue = [3509, 118]\nclass = ham", fillcolor="#e68540"] ;
10 -> 11 ;
12 [label="new <= 0.645\ngini = 0.056\nsamples = 3602\nvalue = [3498, 104]\nclass = ham", fillcolor="#e6853f"] ;
11 -> 12 ;
13 [label="pobox <= 0.098\ngini = 0.053\nsamples = 3595\nvalue = [3498, 97]\nclass = ham", fillcolor="#e6843e"] ;
12 -> 13 ;
14 [label="tone <= 0.178\ngini = 0.049\nsamples = 3588\nvalue = [3498, 90]\nclass = ham", fillcolor="#e6843e"] ;
13 -> 14 ;
15 [label="immedi <= 0.539\ngini = 0.046\nsamples = 3583\nvalue = [3498, 85]\nclass = ham", fillcolor="#e6843e"] ;
14 -> 15 ;
16 [label="chat <= 0.122\ngini = 0.044\nsamples = 3578\nvalue = [3498, 80]\nclass = ham", fillcolor="#e6843e"] ;
15 -> 16 ;
17 [label="ac <= 0.153\ngini = 0.039\nsamples = 3557\nvalue = [3487, 70]\nclass = ham", fillcolor="#e6843d"] ;
16 -> 17 ;
18 [label="video <= 0.24\ngini = 0.036\nsamples = 3553\nvalue = [3487, 66]\nclass = ham", fillcolor="#e5833d"] ;
17 -> 18 ;
19 [label="win <= 0.146\ngini = 0.034\nsamples = 3549\nvalue = [3487, 62]\nclass = ham", fillcolor="#e5833d"] ;
18 -> 19 ;
20 [label="current <= 0.237\ngini = 0.029\nsamples = 3517\nvalue = [3466, 51]\nclass = ham", fillcolor="#e5833c"] ;
19 -> 20 ;
21 [label="com <= 0.224\ngini = 0.026\nsamples = 3510\nvalue = [3464, 46]\nclass = ham", fillcolor="#e5833c"] ;
20 -> 21 ;
22 [label="club <= 0.133\ngini = 0.023\nsamples = 3502\nvalue = [3461, 41]\nclass = ham", fillcolor="#e5823b"] ;
21 -> 22 ;
23 [label="freemsg <= 0.163\ngini = 0.022\nsamples = 3500\nvalue = [3461, 39]\nclass = ham", fillcolor="#e5823b"] ;
22 -> 23 ;
24 [label="fanci <= 0.361\ngini = 0.021\nsamples = 3498\nvalue = [3461, 37]\nclass = ham", fillcolor="#e5823b"] ;
23 -> 24 ;
25 [label="unsubscrib <= 0.132\ngini = 0.02\nsamples = 3496\nvalue = [3461, 35]\nclass = ham", fillcolor="#e5823b"] ;
24 -> 25 ;
26 [label="alert <= 0.182\ngini = 0.019\nsamples = 3494\nvalue = [3461, 33]\nclass = ham", fillcolor="#e5823b"] ;
25 -> 26 ;
27 [label="respons <= 0.382\ngini = 0.018\nsamples = 3492\nvalue = [3461, 31]\nclass = ham", fillcolor="#e5823b"] ;
26 -> 27 ;
28 [label="ts <= 0.202\ngini = 0.016\nsamples = 3489\nvalue = [3460, 29]\nclass = ham", fillcolor="#e5823b"] ;
27 -> 28 ;
29 [label="ls <= 0.187\ngini = 0.016\nsamples = 3488\nvalue = [3460, 28]\nclass = ham", fillcolor="#e5823b"] ;
28 -> 29 ;
30 [label="optout <= 0.172\ngini = 0.015\nsamples = 3487\nvalue = [3460, 27]\nclass = ham", fillcolor="#e5823b"] ;
29 -> 30 ;
31 [label="rington <= 0.227\ngini = 0.015\nsamples = 3486\nvalue = [3460, 26]\nclass = ham", fillcolor="#e5823a"] ;
30 -> 31 ;
32 [label="subscrib <= 0.168\ngini = 0.014\nsamples = 3485\nvalue = [3460, 25]\nclass = ham", fillcolor="#e5823a"] ;
31 -> 32 ;
33 [label="pound <= 0.582\ngini = 0.014\nsamples = 3484\nvalue = [3460, 24]\nclass = ham", fillcolor="#e5823a"] ;
32 -> 33 ;
34 [label="opt <= 0.15\ngini = 0.013\nsamples = 3483\nvalue = [3460, 23]\nclass = ham", fillcolor="#e5823a"] ;
33 -> 34 ;
35 [label="email <= 0.747\ngini = 0.013\nsamples = 3482\nvalue = [3460, 22]\nclass = ham", fillcolor="#e5823a"] ;
34 -> 35 ;
36 [label="begin <= 0.542\ngini = 0.012\nsamples = 3481\nvalue = [3460, 21]\nclass = ham", fillcolor="#e5823a"] ;
35 -> 36 ;
37 [label="access <= 0.377\ngini = 0.011\nsamples = 3480\nvalue = [3460, 20]\nclass = ham", fillcolor="#e5823a"] ;
36 -> 37 ;
38 [label="vodafon <= 0.206\ngini = 0.011\nsamples = 3479\nvalue = [3460, 19]\nclass = ham", fillcolor="#e5823a"] ;
37 -> 38 ;
39 [label="http <= 0.149\ngini = 0.01\nsamples = 3478\nvalue = [3460, 18]\nclass = ham", fillcolor="#e5823a"] ;
38 -> 39 ;
40 [label="sunshin <= 0.217\ngini = 0.01\nsamples = 3477\nvalue = [3460, 17]\nclass = ham", fillcolor="#e5823a"] ;
39 -> 40 ;
41 [label="freephon <= 0.5\ngini = 0.009\nsamples = 3476\nvalue = [3460, 16]\nclass = ham", fillcolor="#e5823a"] ;
40 -> 41 ;
42 [label="pm <= 0.626\ngini = 0.009\nsamples = 3475\nvalue = [3460, 15]\nclass = ham", fillcolor="#e5823a"] ;
41 -> 42 ;
43 [label="yr <= 0.449\ngini = 0.008\nsamples = 3474\nvalue = [3460, 14]\nclass = ham", fillcolor="#e5823a"] ;
42 -> 43 ;
44 [label="user <= 0.332\ngini = 0.007\nsamples = 3473\nvalue = [3460, 13]\nclass = ham", fillcolor="#e5813a"] ;
43 -> 44 ;
45 [label="order <= 0.569\ngini = 0.007\nsamples = 3472\nvalue = [3460, 12]\nclass = ham", fillcolor="#e5813a"] ;
44 -> 45 ;
46 [label="round <= 0.541\ngini = 0.006\nsamples = 3471\nvalue = [3460, 11]\nclass = ham", fillcolor="#e5813a"] ;
45 -> 46 ;
47 [label="pass <= 0.428\ngini = 0.006\nsamples = 3469\nvalue = [3459, 10]\nclass = ham", fillcolor="#e5813a"] ;
46 -> 47 ;
48 [label="stuff <= 0.571\ngini = 0.005\nsamples = 3467\nvalue = [3458, 9]\nclass = ham", fillcolor="#e5813a"] ;
47 -> 48 ;
49 [label="member <= 0.319\ngini = 0.005\nsamples = 3465\nvalue = [3457, 8]\nclass = ham", fillcolor="#e58139"] ;
48 -> 49 ;
50 [label="one <= 0.411\ngini = 0.004\nsamples = 3463\nvalue = [3456, 7]\nclass = ham", fillcolor="#e58139"] ;
49 -> 50 ;
51 [label="green <= 0.352\ngini = 0.003\nsamples = 3461\nvalue = [3455, 6]\nclass = ham", fillcolor="#e58139"] ;
50 -> 51 ;
52 [label="connect <= 0.655\ngini = 0.003\nsamples = 3459\nvalue = [3454, 5]\nclass = ham", fillcolor="#e58139"] ;
51 -> 52 ;
53 [label="help <= 0.615\ngini = 0.002\nsamples = 3457\nvalue = [3453, 4]\nclass = ham", fillcolor="#e58139"] ;
52 -> 53 ;
54 [label="ignor <= 0.37\ngini = 0.002\nsamples = 3454\nvalue = [3451, 3]\nclass = ham", fillcolor="#e58139"] ;
53 -> 54 ;
55 [label="come <= 0.033\ngini = 0.001\nsamples = 3451\nvalue = [3449, 2]\nclass = ham", fillcolor="#e58139"] ;
54 -> 55 ;
56 [label="get <= 0.044\ngini = 0.001\nsamples = 3235\nvalue = [3233, 2]\nclass = ham", fillcolor="#e58139"] ;
55 -> 56 ;
57 [label="ok <= 0.053\ngini = 0.001\nsamples = 3048\nvalue = [3046, 2]\nclass = ham", fillcolor="#e58139"] ;
56 -> 57 ;
58 [label="know <= 0.059\ngini = 0.001\nsamples = 2881\nvalue = [2879, 2]\nclass = ham", fillcolor="#e58139"] ;
57 -> 58 ;
59 [label="go <= 0.058\ngini = 0.001\nsamples = 2720\nvalue = [2718, 2]\nclass = ham", fillcolor="#e58139"] ;
58 -> 59 ;
60 [label="gt <= 0.027\ngini = 0.002\nsamples = 2573\nvalue = [2571, 2]\nclass = ham", fillcolor="#e58139"] ;
59 -> 60 ;
61 [label="ll <= 0.073\ngini = 0.002\nsamples = 2446\nvalue = [2444, 2]\nclass = ham", fillcolor="#e58139"] ;
60 -> 61 ;
62 [label="love <= 0.036\ngini = 0.002\nsamples = 2331\nvalue = [2329, 2]\nclass = ham", fillcolor="#e58139"] ;
61 -> 62 ;
63 [label="day <= 0.056\ngini = 0.002\nsamples = 2227\nvalue = [2225, 2]\nclass = ham", fillcolor="#e58139"] ;
62 -> 63 ;
64 [label="like <= 0.066\ngini = 0.002\nsamples = 2135\nvalue = [2133, 2]\nclass = ham", fillcolor="#e58139"] ;
63 -> 64 ;
65 [label="want <= 0.057\ngini = 0.002\nsamples = 2047\nvalue = [2045, 2]\nclass = ham", fillcolor="#e58139"] ;
64 -> 65 ;
66 [label="think <= 0.055\ngini = 0.002\nsamples = 1971\nvalue = [1969, 2]\nclass = ham", fillcolor="#e58139"] ;
65 -> 66 ;
67 [label="good <= 0.064\ngini = 0.002\nsamples = 1897\nvalue = [1895, 2]\nclass = ham", fillcolor="#e58139"] ;
66 -> 67 ;
68 [label="send <= 0.063\ngini = 0.002\nsamples = 1830\nvalue = [1828, 2]\nclass = ham", fillcolor="#e58139"] ;
67 -> 68 ;
69 [label="need <= 0.071\ngini = 0.002\nsamples = 1765\nvalue = [1763, 2]\nclass = ham", fillcolor="#e58139"] ;
68 -> 69 ;
70 [label="tell <= 0.07\ngini = 0.002\nsamples = 1705\nvalue = [1703, 2]\nclass = ham", fillcolor="#e58139"] ;
69 -> 70 ;
71 [label="ur <= 0.046\ngini = 0.002\nsamples = 1648\nvalue = [1646, 2]\nclass = ham", fillcolor="#e58139"] ;
70 -> 71 ;
72 [label="lor <= 0.077\ngini = 0.003\nsamples = 1595\nvalue = [1593, 2]\nclass = ham", fillcolor="#e58139"] ;
71 -> 72 ;
73 [label="da <= 0.107\ngini = 0.003\nsamples = 1545\nvalue = [1543, 2]\nclass = ham", fillcolor="#e58139"] ;
72 -> 73 ;
74 [label="meet <= 0.067\ngini = 0.003\nsamples = 1502\nvalue = [1500, 2]\nclass = ham", fillcolor="#e58139"] ;
73 -> 74 ;
75 [label="home <= 0.094\ngini = 0.003\nsamples = 1465\nvalue = [1463, 2]\nclass = ham", fillcolor="#e58139"] ;
74 -> 75 ;
76 [label="today <= 0.083\ngini = 0.003\nsamples = 1430\nvalue = [1428, 2]\nclass = ham", fillcolor="#e58139"] ;
75 -> 76 ;
77 [label="dont <= 0.093\ngini = 0.003\nsamples = 1400\nvalue = [1398, 2]\nclass = ham", fillcolor="#e58139"] ;
76 -> 77 ;
78 [label="lol <= 0.133\ngini = 0.003\nsamples = 1371\nvalue = [1369, 2]\nclass = ham", fillcolor="#e58139"] ;
77 -> 78 ;
79 [label="leav <= 0.08\ngini = 0.003\nsamples = 1342\nvalue = [1340, 2]\nclass = ham", fillcolor="#e58139"] ;
78 -> 79 ;
80 [label="yes <= 0.076\ngini = 0.003\nsamples = 1315\nvalue = [1313, 2]\nclass = ham", fillcolor="#e58139"] ;
79 -> 80 ;
81 [label="time <= 0.081\ngini = 0.003\nsamples = 1288\nvalue = [1286, 2]\nclass = ham", fillcolor="#e58139"] ;
80 -> 81 ;
82 [label="hey <= 0.116\ngini = 0.003\nsamples = 1262\nvalue = [1260, 2]\nclass = ham", fillcolor="#e58139"] ;
81 -> 82 ;
83 [label="yeah <= 0.141\ngini = 0.003\nsamples = 1237\nvalue = [1235, 2]\nclass = ham", fillcolor="#e58139"] ;
82 -> 83 ;
84 [label="wait <= 0.085\ngini = 0.003\nsamples = 1212\nvalue = [1210, 2]\nclass = ham", fillcolor="#e58139"] ;
83 -> 84 ;
85 [label="wat <= 0.104\ngini = 0.003\nsamples = 1188\nvalue = [1186, 2]\nclass = ham", fillcolor="#e58139"] ;
84 -> 85 ;
86 [label="miss <= 0.094\ngini = 0.003\nsamples = 1165\nvalue = [1163, 2]\nclass = ham", fillcolor="#e58139"] ;
85 -> 86 ;
87 [label="phone <= 0.079\ngini = 0.003\nsamples = 1142\nvalue = [1140, 2]\nclass = ham", fillcolor="#e58139"] ;
86 -> 87 ;
88 [label="happi <= 0.065\ngini = 0.004\nsamples = 1121\nvalue = [1119, 2]\nclass = ham", fillcolor="#e58139"] ;
87 -> 88 ;
89 [label="oh <= 0.099\ngini = 0.004\nsamples = 1100\nvalue = [1098, 2]\nclass = ham", fillcolor="#e58139"] ;
88 -> 89 ;
90 [label="dear <= 0.127\ngini = 0.004\nsamples = 1080\nvalue = [1078, 2]\nclass = ham", fillcolor="#e58139"] ;
89 -> 90 ;
91 [label="work <= 0.121\ngini = 0.004\nsamples = 1060\nvalue = [1058, 2]\nclass = ham", fillcolor="#e58139"] ;
90 -> 91 ;
92 [label="hi <= 0.13\ngini = 0.004\nsamples = 1041\nvalue = [1039, 2]\nclass = ham", fillcolor="#e58139"] ;
91 -> 92 ;
93 [label="way <= 0.11\ngini = 0.004\nsamples = 1022\nvalue = [1020, 2]\nclass = ham", fillcolor="#e58139"] ;
92 -> 93 ;
94 [label="thing <= 0.127\ngini = 0.004\nsamples = 1004\nvalue = [1002, 2]\nclass = ham", fillcolor="#e58139"] ;
93 -> 94 ;
95 [label="watch <= 0.113\ngini = 0.004\nsamples = 987\nvalue = [985, 2]\nclass = ham", fillcolor="#e58139"] ;
94 -> 95 ;
96 [label="tri <= 0.119\ngini = 0.004\nsamples = 970\nvalue = [968, 2]\nclass = ham", fillcolor="#e58139"] ;
95 -> 96 ;
97 [label="ask <= 0.117\ngini = 0.004\nsamples = 953\nvalue = [951, 2]\nclass = ham", fillcolor="#e58139"] ;
96 -> 97 ;
98 [label="pick <= 0.088\ngini = 0.004\nsamples = 936\nvalue = [934, 2]\nclass = ham", fillcolor="#e58139"] ;
97 -> 98 ;
99 [label="check <= 0.138\ngini = 0.004\nsamples = 919\nvalue = [917, 2]\nclass = ham", fillcolor="#e58139"] ;
98 -> 99 ;
100 [label="pls <= 0.101\ngini = 0.004\nsamples = 903\nvalue = [901, 2]\nclass = ham", fillcolor="#e58139"] ;
99 -> 100 ;
101 [label="sorri <= 0.098\ngini = 0.004\nsamples = 887\nvalue = [885, 2]\nclass = ham", fillcolor="#e58139"] ;
100 -> 101 ;
102 [label="right <= 0.097\ngini = 0.005\nsamples = 872\nvalue = [870, 2]\nclass = ham", fillcolor="#e58139"] ;
101 -> 102 ;
103 [label="fine <= 0.217\ngini = 0.005\nsamples = 858\nvalue = [856, 2]\nclass = ham", fillcolor="#e58139"] ;
102 -> 103 ;
104 [label="ì_ <= 0.097\ngini = 0.005\nsamples = 844\nvalue = [842, 2]\nclass = ham", fillcolor="#e58139"] ;
103 -> 104 ;
105 [label="sleep <= 0.168\ngini = 0.005\nsamples = 831\nvalue = [829, 2]\nclass = ham", fillcolor="#e58139"] ;
104 -> 105 ;
106 [label="great <= 0.148\ngini = 0.005\nsamples = 818\nvalue = [816, 2]\nclass = ham", fillcolor="#e58139"] ;
105 -> 106 ;
107 [label="thank <= 0.179\ngini = 0.005\nsamples = 806\nvalue = [804, 2]\nclass = ham", fillcolor="#e58139"] ;
106 -> 107 ;
108 [label="care <= 0.12\ngini = 0.005\nsamples = 795\nvalue = [793, 2]\nclass = ham", fillcolor="#e58139"] ;
107 -> 108 ;
109 [label="messag <= 0.113\ngini = 0.005\nsamples = 784\nvalue = [782, 2]\nclass = ham", fillcolor="#e5813a"] ;
108 -> 109 ;
110 [label="haha <= 0.149\ngini = 0.005\nsamples = 773\nvalue = [771, 2]\nclass = ham", fillcolor="#e5813a"] ;
109 -> 110 ;
111 [label="place <= 0.16\ngini = 0.005\nsamples = 762\nvalue = [760, 2]\nclass = ham", fillcolor="#e5813a"] ;
110 -> 111 ;
112 [label="night <= 0.142\ngini = 0.005\nsamples = 751\nvalue = [749, 2]\nclass = ham", fillcolor="#e5813a"] ;
111 -> 112 ;
113 [label="later <= 0.178\ngini = 0.005\nsamples = 741\nvalue = [739, 2]\nclass = ham", fillcolor="#e5813a"] ;
112 -> 113 ;
114 [label="oki <= 0.222\ngini = 0.005\nsamples = 731\nvalue = [729, 2]\nclass = ham", fillcolor="#e5813a"] ;
113 -> 114 ;
115 [label="nice <= 0.122\ngini = 0.006\nsamples = 721\nvalue = [719, 2]\nclass = ham", fillcolor="#e5813a"] ;
114 -> 115 ;
116 [label="take <= 0.169\ngini = 0.006\nsamples = 711\nvalue = [709, 2]\nclass = ham", fillcolor="#e5813a"] ;
115 -> 116 ;
117 [label="drive <= 0.085\ngini = 0.006\nsamples = 702\nvalue = [700, 2]\nclass = ham", fillcolor="#e5813a"] ;
116 -> 117 ;
118 [label="car <= 0.148\ngini = 0.006\nsamples = 693\nvalue = [691, 2]\nclass = ham", fillcolor="#e5813a"] ;
117 -> 118 ;
119 [label="use <= 0.12\ngini = 0.006\nsamples = 684\nvalue = [682, 2]\nclass = ham", fillcolor="#e5813a"] ;
118 -> 119 ;
120 [label="late <= 0.206\ngini = 0.006\nsamples = 675\nvalue = [673, 2]\nclass = ham", fillcolor="#e5813a"] ;
119 -> 120 ;
121 [label="mean <= 0.08\ngini = 0.006\nsamples = 667\nvalue = [665, 2]\nclass = ham", fillcolor="#e5813a"] ;
120 -> 121 ;
122 [label="talk <= 0.23\ngini = 0.006\nsamples = 659\nvalue = [657, 2]\nclass = ham", fillcolor="#e5813a"] ;
121 -> 122 ;
123 [label="lunch <= 0.254\ngini = 0.006\nsamples = 651\nvalue = [649, 2]\nclass = ham", fillcolor="#e5813a"] ;
122 -> 123 ;
124 [label="life <= 0.082\ngini = 0.006\nsamples = 643\nvalue = [641, 2]\nclass = ham", fillcolor="#e5813a"] ;
123 -> 124 ;
125 [label="ill <= 0.169\ngini = 0.006\nsamples = 635\nvalue = [633, 2]\nclass = ham", fillcolor="#e5813a"] ;
124 -> 125 ;
126 [label="big <= 0.137\ngini = 0.006\nsamples = 627\nvalue = [625, 2]\nclass = ham", fillcolor="#e5813a"] ;
125 -> 126 ;
127 [label="say <= 0.121\ngini = 0.006\nsamples = 619\nvalue = [617, 2]\nclass = ham", fillcolor="#e5813a"] ;
126 -> 127 ;
128 [label="test <= 0.17\ngini = 0.007\nsamples = 611\nvalue = [609, 2]\nclass = ham", fillcolor="#e5813a"] ;
127 -> 128 ;
129 [label="wot <= 0.23\ngini = 0.007\nsamples = 604\nvalue = [602, 2]\nclass = ham", fillcolor="#e5813a"] ;
128 -> 129 ;
130 [label="plan <= 0.24\ngini = 0.007\nsamples = 597\nvalue = [595, 2]\nclass = ham", fillcolor="#e5813a"] ;
129 -> 130 ;
131 [label="number <= 0.117\ngini = 0.007\nsamples = 590\nvalue = [588, 2]\nclass = ham", fillcolor="#e5813a"] ;
130 -> 131 ;
132 [label="week <= 0.1\ngini = 0.007\nsamples = 583\nvalue = [581, 2]\nclass = ham", fillcolor="#e5813a"] ;
131 -> 132 ;
133 [label="finish <= 0.161\ngini = 0.007\nsamples = 576\nvalue = [574, 2]\nclass = ham", fillcolor="#e5813a"] ;
132 -> 133 ;
134 [label="friend <= 0.092\ngini = 0.007\nsamples = 569\nvalue = [567, 2]\nclass = ham", fillcolor="#e5813a"] ;
133 -> 134 ;
135 [label="buy <= 0.167\ngini = 0.007\nsamples = 562\nvalue = [560, 2]\nclass = ham", fillcolor="#e5813a"] ;
134 -> 135 ;
136 [label="happen <= 0.117\ngini = 0.007\nsamples = 556\nvalue = [554, 2]\nclass = ham", fillcolor="#e5813a"] ;
135 -> 136 ;
137 [label="bring <= 0.125\ngini = 0.007\nsamples = 550\nvalue = [548, 2]\nclass = ham", fillcolor="#e5813a"] ;
136 -> 137 ;
138 [label="book <= 0.169\ngini = 0.007\nsamples = 544\nvalue = [542, 2]\nclass = ham", fillcolor="#e5813a"] ;
137 -> 138 ;
139 [label="princess <= 0.177\ngini = 0.007\nsamples = 538\nvalue = [536, 2]\nclass = ham", fillcolor="#e5813a"] ;
138 -> 139 ;
140 [label="ya <= 0.242\ngini = 0.007\nsamples = 532\nvalue = [530, 2]\nclass = ham", fillcolor="#e5813a"] ;
139 -> 140 ;
141 [label="im <= 0.194\ngini = 0.008\nsamples = 527\nvalue = [525, 2]\nclass = ham", fillcolor="#e5813a"] ;
140 -> 141 ;
142 [label="mayb <= 0.129\ngini = 0.008\nsamples = 522\nvalue = [520, 2]\nclass = ham", fillcolor="#e5813a"] ;
141 -> 142 ;
143 [label="babe <= 0.241\ngini = 0.008\nsamples = 517\nvalue = [515, 2]\nclass = ham", fillcolor="#e5813a"] ;
142 -> 143 ;
144 [label="yup <= 0.173\ngini = 0.008\nsamples = 512\nvalue = [510, 2]\nclass = ham", fillcolor="#e5813a"] ;
143 -> 144 ;
145 [label="heart <= 0.194\ngini = 0.008\nsamples = 507\nvalue = [505, 2]\nclass = ham", fillcolor="#e5813a"] ;
144 -> 145 ;
146 [label="guess <= 0.185\ngini = 0.008\nsamples = 502\nvalue = [500, 2]\nclass = ham", fillcolor="#e5823a"] ;
145 -> 146 ;
147 [label="fuck <= 0.17\ngini = 0.008\nsamples = 497\nvalue = [495, 2]\nclass = ham", fillcolor="#e5823a"] ;
146 -> 147 ;
148 [label="reach <= 0.2\ngini = 0.008\nsamples = 492\nvalue = [490, 2]\nclass = ham", fillcolor="#e5823a"] ;
147 -> 148 ;
149 [label="chang <= 0.175\ngini = 0.008\nsamples = 487\nvalue = [485, 2]\nclass = ham", fillcolor="#e5823a"] ;
148 -> 149 ;
150 [label="guy <= 0.206\ngini = 0.008\nsamples = 482\nvalue = [480, 2]\nclass = ham", fillcolor="#e5823a"] ;
149 -> 150 ;
151 [label="start <= 0.181\ngini = 0.008\nsamples = 477\nvalue = [475, 2]\nclass = ham", fillcolor="#e5823a"] ;
150 -> 151 ;
152 [label="earli <= 0.201\ngini = 0.008\nsamples = 472\nvalue = [470, 2]\nclass = ham", fillcolor="#e5823a"] ;
151 -> 152 ;
153 [label="make <= 0.161\ngini = 0.009\nsamples = 467\nvalue = [465, 2]\nclass = ham", fillcolor="#e5823a"] ;
152 -> 153 ;
154 [label="play <= 0.131\ngini = 0.009\nsamples = 462\nvalue = [460, 2]\nclass = ham", fillcolor="#e5823a"] ;
153 -> 154 ;
155 [label="girl <= 0.189\ngini = 0.009\nsamples = 458\nvalue = [456, 2]\nclass = ham", fillcolor="#e5823a"] ;
154 -> 155 ;
156 [label="money <= 0.189\ngini = 0.009\nsamples = 454\nvalue = [452, 2]\nclass = ham", fillcolor="#e5823a"] ;
155 -> 156 ;
157 [label="readi <= 0.201\ngini = 0.009\nsamples = 450\nvalue = [448, 2]\nclass = ham", fillcolor="#e5823a"] ;
156 -> 157 ;
158 [label="true <= 0.228\ngini = 0.009\nsamples = 446\nvalue = [444, 2]\nclass = ham", fillcolor="#e5823a"] ;
157 -> 158 ;
159 [label="cool <= 0.22\ngini = 0.009\nsamples = 442\nvalue = [440, 2]\nclass = ham", fillcolor="#e5823a"] ;
158 -> 159 ;
160 [label="oredi <= 0.232\ngini = 0.009\nsamples = 438\nvalue = [436, 2]\nclass = ham", fillcolor="#e5823a"] ;
159 -> 160 ;
161 [label="eat <= 0.167\ngini = 0.009\nsamples = 434\nvalue = [432, 2]\nclass = ham", fillcolor="#e5823a"] ;
160 -> 161 ;
162 [label="class <= 0.229\ngini = 0.009\nsamples = 430\nvalue = [428, 2]\nclass = ham", fillcolor="#e5823a"] ;
161 -> 162 ;
163 [label="possibl <= 0.278\ngini = 0.009\nsamples = 426\nvalue = [424, 2]\nclass = ham", fillcolor="#e5823a"] ;
162 -> 163 ;
164 [label="town <= 0.248\ngini = 0.009\nsamples = 422\nvalue = [420, 2]\nclass = ham", fillcolor="#e5823a"] ;
163 -> 164 ;
165 [label="see <= 0.148\ngini = 0.01\nsamples = 418\nvalue = [416, 2]\nclass = ham", fillcolor="#e5823a"] ;
164 -> 165 ;
166 [label="rock <= 0.306\ngini = 0.01\nsamples = 414\nvalue = [412, 2]\nclass = ham", fillcolor="#e5823a"] ;
165 -> 166 ;
167 [label="train <= 0.258\ngini = 0.01\nsamples = 410\nvalue = [408, 2]\nclass = ham", fillcolor="#e5823a"] ;
166 -> 167 ;
168 [label="special <= 0.156\ngini = 0.01\nsamples = 406\nvalue = [404, 2]\nclass = ham", fillcolor="#e5823a"] ;
167 -> 168 ;
169 [label="wanna <= 0.247\ngini = 0.01\nsamples = 402\nvalue = [400, 2]\nclass = ham", fillcolor="#e5823a"] ;
168 -> 169 ;
170 [label="song <= 0.5\ngini = 0.01\nsamples = 398\nvalue = [396, 2]\nclass = ham", fillcolor="#e5823a"] ;
169 -> 170 ;
171 [label="hear <= 0.219\ngini = 0.01\nsamples = 395\nvalue = [393, 2]\nclass = ham", fillcolor="#e5823a"] ;
170 -> 171 ;
172 [label="hour <= 0.221\ngini = 0.01\nsamples = 392\nvalue = [390, 2]\nclass = ham", fillcolor="#e5823a"] ;
171 -> 172 ;
173 [label="convey <= 0.301\ngini = 0.01\nsamples = 389\nvalue = [387, 2]\nclass = ham", fillcolor="#e5823a"] ;
172 -> 173 ;
174 [label="quick <= 0.253\ngini = 0.01\nsamples = 386\nvalue = [384, 2]\nclass = ham", fillcolor="#e5823a"] ;
173 -> 174 ;
175 [label="problem <= 0.311\ngini = 0.01\nsamples = 383\nvalue = [381, 2]\nclass = ham", fillcolor="#e5823a"] ;
174 -> 175 ;
176 [label="offic <= 0.209\ngini = 0.01\nsamples = 380\nvalue = [378, 2]\nclass = ham", fillcolor="#e5823a"] ;
175 -> 176 ;
177 [label="chennai <= 0.325\ngini = 0.011\nsamples = 377\nvalue = [375, 2]\nclass = ham", fillcolor="#e5823a"] ;
176 -> 177 ;
178 [label="facebook <= 0.379\ngini = 0.011\nsamples = 374\nvalue = [372, 2]\nclass = ham", fillcolor="#e5823a"] ;
177 -> 178 ;
179 [label="peopl <= 0.118\ngini = 0.011\nsamples = 371\nvalue = [369, 2]\nclass = ham", fillcolor="#e5823a"] ;
178 -> 179 ;
180 [label="isn <= 0.201\ngini = 0.011\nsamples = 368\nvalue = [366, 2]\nclass = ham", fillcolor="#e5823a"] ;
179 -> 180 ;
181 [label="wont <= 0.262\ngini = 0.011\nsamples = 365\nvalue = [363, 2]\nclass = ham", fillcolor="#e5823a"] ;
180 -> 181 ;
182 [label="celebr <= 0.309\ngini = 0.011\nsamples = 362\nvalue = [360, 2]\nclass = ham", fillcolor="#e5823a"] ;
181 -> 182 ;
183 [label="normal <= 0.263\ngini = 0.011\nsamples = 359\nvalue = [357, 2]\nclass = ham", fillcolor="#e5823a"] ;
182 -> 183 ;
184 [label="aight <= 0.186\ngini = 0.011\nsamples = 356\nvalue = [354, 2]\nclass = ham", fillcolor="#e5823a"] ;
183 -> 184 ;
185 [label="nt <= 0.181\ngini = 0.011\nsamples = 353\nvalue = [351, 2]\nclass = ham", fillcolor="#e5823a"] ;
184 -> 185 ;
186 [label="address <= 0.315\ngini = 0.011\nsamples = 350\nvalue = [348, 2]\nclass = ham", fillcolor="#e5823a"] ;
185 -> 186 ;
187 [label="shall <= 0.231\ngini = 0.011\nsamples = 347\nvalue = [345, 2]\nclass = ham", fillcolor="#e5823a"] ;
186 -> 187 ;
188 [label="download <= 0.285\ngini = 0.012\nsamples = 344\nvalue = [342, 2]\nclass = ham", fillcolor="#e5823a"] ;
187 -> 188 ;
189 [label="lei <= 0.273\ngini = 0.012\nsamples = 341\nvalue = [339, 2]\nclass = ham", fillcolor="#e5823a"] ;
188 -> 189 ;
190 [label="room <= 0.205\ngini = 0.012\nsamples = 338\nvalue = [336, 2]\nclass = ham", fillcolor="#e5823a"] ;
189 -> 190 ;
191 [label="player <= 0.287\ngini = 0.012\nsamples = 335\nvalue = [333, 2]\nclass = ham", fillcolor="#e5823a"] ;
190 -> 191 ;
192 [label="old <= 0.248\ngini = 0.012\nsamples = 332\nvalue = [330, 2]\nclass = ham", fillcolor="#e5823a"] ;
191 -> 192 ;
193 [label="sure <= 0.214\ngini = 0.012\nsamples = 329\nvalue = [327, 2]\nclass = ham", fillcolor="#e5823a"] ;
192 -> 193 ;
194 [label="thanx <= 0.238\ngini = 0.012\nsamples = 326\nvalue = [324, 2]\nclass = ham", fillcolor="#e5823a"] ;
193 -> 194 ;
195 [label="month <= 0.347\ngini = 0.012\nsamples = 323\nvalue = [321, 2]\nclass = ham", fillcolor="#e5823a"] ;
194 -> 195 ;
196 [label="catch <= 0.241\ngini = 0.012\nsamples = 320\nvalue = [318, 2]\nclass = ham", fillcolor="#e5823a"] ;
195 -> 196 ;
197 [label="shop <= 0.254\ngini = 0.013\nsamples = 317\nvalue = [315, 2]\nclass = ham", fillcolor="#e5823a"] ;
196 -> 197 ;
198 [label="ice <= 0.362\ngini = 0.013\nsamples = 314\nvalue = [312, 2]\nclass = ham", fillcolor="#e5823a"] ;
197 -> 198 ;
199 [label="let <= 0.177\ngini = 0.013\nsamples = 311\nvalue = [309, 2]\nclass = ham", fillcolor="#e5823a"] ;
198 -> 199 ;
200 [label="snow <= 0.249\ngini = 0.013\nsamples = 308\nvalue = [306, 2]\nclass = ham", fillcolor="#e5823a"] ;
199 -> 200 ;
201 [label="world <= 0.162\ngini = 0.013\nsamples = 305\nvalue = [303, 2]\nclass = ham", fillcolor="#e5823a"] ;
200 -> 201 ;
202 [label="list <= 0.346\ngini = 0.013\nsamples = 302\nvalue = [300, 2]\nclass = ham", fillcolor="#e5823a"] ;
201 -> 202 ;
203 [label="nigeria <= 0.354\ngini = 0.013\nsamples = 300\nvalue = [298, 2]\nclass = ham", fillcolor="#e5823a"] ;
202 -> 203 ;
204 [label="suppos <= 0.211\ngini = 0.013\nsamples = 298\nvalue = [296, 2]\nclass = ham", fillcolor="#e5823a"] ;
203 -> 204 ;
205 [label="year <= 0.216\ngini = 0.013\nsamples = 296\nvalue = [294, 2]\nclass = ham", fillcolor="#e5823a"] ;
204 -> 205 ;
206 [label="hurt <= 0.256\ngini = 0.014\nsamples = 294\nvalue = [292, 2]\nclass = ham", fillcolor="#e5823a"] ;
205 -> 206 ;
207 [label="busi <= 0.352\ngini = 0.014\nsamples = 292\nvalue = [290, 2]\nclass = ham", fillcolor="#e5823a"] ;
206 -> 207 ;
208 [label="look <= 0.21\ngini = 0.014\nsamples = 290\nvalue = [288, 2]\nclass = ham", fillcolor="#e5823a"] ;
207 -> 208 ;
209 [label="real <= 0.183\ngini = 0.014\nsamples = 288\nvalue = [286, 2]\nclass = ham", fillcolor="#e5823a"] ;
208 -> 209 ;
210 [label="sister <= 0.237\ngini = 0.014\nsamples = 286\nvalue = [284, 2]\nclass = ham", fillcolor="#e5823a"] ;
209 -> 210 ;
211 [label="comp <= 0.242\ngini = 0.014\nsamples = 284\nvalue = [282, 2]\nclass = ham", fillcolor="#e5823a"] ;
210 -> 211 ;
212 [label="long <= 0.238\ngini = 0.014\nsamples = 282\nvalue = [280, 2]\nclass = ham", fillcolor="#e5823a"] ;
211 -> 212 ;
213 [label="yep <= 0.249\ngini = 0.014\nsamples = 280\nvalue = [278, 2]\nclass = ham", fillcolor="#e5823a"] ;
212 -> 213 ;
214 [label="sit <= 0.082\ngini = 0.014\nsamples = 278\nvalue = [276, 2]\nclass = ham", fillcolor="#e5823a"] ;
213 -> 214 ;
215 [label="min <= 0.202\ngini = 0.014\nsamples = 276\nvalue = [274, 2]\nclass = ham", fillcolor="#e5823a"] ;
214 -> 215 ;
216 [label="howz <= 0.345\ngini = 0.014\nsamples = 274\nvalue = [272, 2]\nclass = ham", fillcolor="#e5823a"] ;
215 -> 216 ;
217 [label="laptop <= 0.324\ngini = 0.015\nsamples = 272\nvalue = [270, 2]\nclass = ham", fillcolor="#e5823a"] ;
216 -> 217 ;
218 [label="street <= 0.249\ngini = 0.015\nsamples = 270\nvalue = [268, 2]\nclass = ham", fillcolor="#e5823a"] ;
217 -> 218 ;
219 [label="easi <= 0.239\ngini = 0.015\nsamples = 268\nvalue = [266, 2]\nclass = ham", fillcolor="#e5823a"] ;
218 -> 219 ;
220 [label="mind <= 0.271\ngini = 0.015\nsamples = 266\nvalue = [264, 2]\nclass = ham", fillcolor="#e5823b"] ;
219 -> 220 ;
221 [label="father <= 0.287\ngini = 0.015\nsamples = 264\nvalue = [262, 2]\nclass = ham", fillcolor="#e5823b"] ;
220 -> 221 ;
222 [label="gud <= 0.163\ngini = 0.015\nsamples = 262\nvalue = [260, 2]\nclass = ham", fillcolor="#e5823b"] ;
221 -> 222 ;
223 [label="funni <= 0.376\ngini = 0.015\nsamples = 260\nvalue = [258, 2]\nclass = ham", fillcolor="#e5823b"] ;
222 -> 223 ;
224 [label="head <= 0.215\ngini = 0.015\nsamples = 258\nvalue = [256, 2]\nclass = ham", fillcolor="#e5823b"] ;
223 -> 224 ;
225 [label="age <= 0.5\ngini = 0.016\nsamples = 256\nvalue = [254, 2]\nclass = ham", fillcolor="#e5823b"] ;
224 -> 225 ;
226 [label="hide <= 0.382\ngini = 0.016\nsamples = 254\nvalue = [252, 2]\nclass = ham", fillcolor="#e5823b"] ;
225 -> 226 ;
227 [label="colleg <= 0.318\ngini = 0.016\nsamples = 252\nvalue = [250, 2]\nclass = ham", fillcolor="#e5823b"] ;
226 -> 227 ;
228 [label="tonight <= 0.289\ngini = 0.016\nsamples = 250\nvalue = [248, 2]\nclass = ham", fillcolor="#e5823b"] ;
227 -> 228 ;
229 [label="believ <= 0.155\ngini = 0.016\nsamples = 248\nvalue = [246, 2]\nclass = ham", fillcolor="#e5823b"] ;
228 -> 229 ;
230 [label="exact <= 0.267\ngini = 0.016\nsamples = 246\nvalue = [244, 2]\nclass = ham", fillcolor="#e5823b"] ;
229 -> 230 ;
231 [label="job <= 0.293\ngini = 0.016\nsamples = 244\nvalue = [242, 2]\nclass = ham", fillcolor="#e5823b"] ;
230 -> 231 ;
232 [label="pa <= 0.361\ngini = 0.016\nsamples = 242\nvalue = [240, 2]\nclass = ham", fillcolor="#e5823b"] ;
231 -> 232 ;
233 [label="drop <= 0.5\ngini = 0.017\nsamples = 240\nvalue = [238, 2]\nclass = ham", fillcolor="#e5823b"] ;
232 -> 233 ;
234 [label="exam <= 0.349\ngini = 0.017\nsamples = 238\nvalue = [236, 2]\nclass = ham", fillcolor="#e5823b"] ;
233 -> 234 ;
235 [label="avail <= 0.333\ngini = 0.017\nsamples = 236\nvalue = [234, 2]\nclass = ham", fillcolor="#e5823b"] ;
234 -> 235 ;
236 [label="tampa <= 0.283\ngini = 0.017\nsamples = 234\nvalue = [232, 2]\nclass = ham", fillcolor="#e5823b"] ;
235 -> 236 ;
237 [label="alright <= 0.375\ngini = 0.017\nsamples = 232\nvalue = [230, 2]\nclass = ham", fillcolor="#e5823b"] ;
236 -> 237 ;
238 [label="idea <= 0.346\ngini = 0.017\nsamples = 230\nvalue = [228, 2]\nclass = ham", fillcolor="#e5823b"] ;
237 -> 238 ;
239 [label="sup <= 0.345\ngini = 0.017\nsamples = 228\nvalue = [226, 2]\nclass = ham", fillcolor="#e5823b"] ;
238 -> 239 ;
240 [label="nah <= 0.36\ngini = 0.018\nsamples = 226\nvalue = [224, 2]\nclass = ham", fillcolor="#e5823b"] ;
239 -> 240 ;
241 [label="hello <= 0.301\ngini = 0.018\nsamples = 224\nvalue = [222, 2]\nclass = ham", fillcolor="#e5823b"] ;
240 -> 241 ;
242 [label="librari <= 0.346\ngini = 0.018\nsamples = 222\nvalue = [220, 2]\nclass = ham", fillcolor="#e5823b"] ;
241 -> 242 ;
243 [label="plz <= 0.221\ngini = 0.018\nsamples = 220\nvalue = [218, 2]\nclass = ham", fillcolor="#e5823b"] ;
242 -> 243 ;
244 [label="glad <= 0.309\ngini = 0.018\nsamples = 218\nvalue = [216, 2]\nclass = ham", fillcolor="#e5823b"] ;
243 -> 244 ;
245 [label="wine <= 0.337\ngini = 0.018\nsamples = 216\nvalue = [214, 2]\nclass = ham", fillcolor="#e5823b"] ;
244 -> 245 ;
246 [label="water <= 0.298\ngini = 0.019\nsamples = 214\nvalue = [212, 2]\nclass = ham", fillcolor="#e5823b"] ;
245 -> 246 ;
247 [label="disturb <= 0.342\ngini = 0.019\nsamples = 212\nvalue = [210, 2]\nclass = ham", fillcolor="#e5823b"] ;
246 -> 247 ;
248 [label="pay <= 0.311\ngini = 0.019\nsamples = 210\nvalue = [208, 2]\nclass = ham", fillcolor="#e5823b"] ;
247 -> 248 ;
249 [label="door <= 0.374\ngini = 0.019\nsamples = 208\nvalue = [206, 2]\nclass = ham", fillcolor="#e5823b"] ;
248 -> 249 ;
250 [label="th <= 0.5\ngini = 0.019\nsamples = 206\nvalue = [204, 2]\nclass = ham", fillcolor="#e5823b"] ;
249 -> 250 ;
251 [label="tel <= 0.5\ngini = 0.019\nsamples = 204\nvalue = [202, 2]\nclass = ham", fillcolor="#e5823b"] ;
250 -> 251 ;
252 [label="mr <= 0.282\ngini = 0.02\nsamples = 202\nvalue = [200, 2]\nclass = ham", fillcolor="#e5823b"] ;
251 -> 252 ;
253 [label="havent <= 0.5\ngini = 0.02\nsamples = 201\nvalue = [199, 2]\nclass = ham", fillcolor="#e5823b"] ;
252 -> 253 ;
254 [label="network <= 0.321\ngini = 0.02\nsamples = 200\nvalue = [198, 2]\nclass = ham", fillcolor="#e5823b"] ;
253 -> 254 ;
255 [label="msg <= 0.169\ngini = 0.02\nsamples = 199\nvalue = [197, 2]\nclass = ham", fillcolor="#e5823b"] ;
254 -> 255 ;
256 [label="opinion <= 0.5\ngini = 0.02\nsamples = 198\nvalue = [196, 2]\nclass = ham", fillcolor="#e5823b"] ;
255 -> 256 ;
257 [label="question <= 0.346\ngini = 0.02\nsamples = 197\nvalue = [195, 2]\nclass = ham", fillcolor="#e5823b"] ;
256 -> 257 ;
258 [label="er <= 0.5\ngini = 0.02\nsamples = 196\nvalue = [194, 2]\nclass = ham", fillcolor="#e5823b"] ;
257 -> 258 ;
259 [label="prob <= 0.329\ngini = 0.02\nsamples = 195\nvalue = [193, 2]\nclass = ham", fillcolor="#e5823b"] ;
258 -> 259 ;
260 [label="sch <= 0.286\ngini = 0.02\nsamples = 194\nvalue = [192, 2]\nclass = ham", fillcolor="#e5823b"] ;
259 -> 260 ;
261 [label="bus <= 0.5\ngini = 0.021\nsamples = 193\nvalue = [191, 2]\nclass = ham", fillcolor="#e5823b"] ;
260 -> 261 ;
262 [label="urself <= 0.333\ngini = 0.021\nsamples = 192\nvalue = [190, 2]\nclass = ham", fillcolor="#e5823b"] ;
261 -> 262 ;
263 [label="hang <= 0.328\ngini = 0.021\nsamples = 191\nvalue = [189, 2]\nclass = ham", fillcolor="#e5823b"] ;
262 -> 263 ;
264 [label="dad <= 0.36\ngini = 0.021\nsamples = 190\nvalue = [188, 2]\nclass = ham", fillcolor="#e5823b"] ;
263 -> 264 ;
265 [label="energi <= 0.38\ngini = 0.021\nsamples = 189\nvalue = [187, 2]\nclass = ham", fillcolor="#e5823b"] ;
264 -> 265 ;
266 [label="thinkin <= 0.5\ngini = 0.021\nsamples = 188\nvalue = [186, 2]\nclass = ham", fillcolor="#e5823b"] ;
265 -> 266 ;
267 [label="bout <= 0.5\ngini = 0.021\nsamples = 187\nvalue = [185, 2]\nclass = ham", fillcolor="#e5823b"] ;
266 -> 267 ;
268 [label="bad <= 0.363\ngini = 0.021\nsamples = 186\nvalue = [184, 2]\nclass = ham", fillcolor="#e5823b"] ;
267 -> 268 ;
269 [label="key <= 0.345\ngini = 0.021\nsamples = 185\nvalue = [183, 2]\nclass = ham", fillcolor="#e5823b"] ;
268 -> 269 ;
270 [label="laugh <= 0.259\ngini = 0.022\nsamples = 184\nvalue = [182, 2]\nclass = ham", fillcolor="#e5823b"] ;
269 -> 270 ;
271 [label="food <= 0.5\ngini = 0.022\nsamples = 183\nvalue = [181, 2]\nclass = ham", fillcolor="#e5823b"] ;
270 -> 271 ;
272 [label="mistak <= 0.373\ngini = 0.022\nsamples = 182\nvalue = [180, 2]\nclass = ham", fillcolor="#e5823b"] ;
271 -> 272 ;
273 [label="alex <= 0.373\ngini = 0.022\nsamples = 181\nvalue = [179, 2]\nclass = ham", fillcolor="#e5823b"] ;
272 -> 273 ;
274 [label="congrat <= 0.384\ngini = 0.022\nsamples = 180\nvalue = [178, 2]\nclass = ham", fillcolor="#e5823b"] ;
273 -> 274 ;
275 [label="acc <= 0.399\ngini = 0.022\nsamples = 179\nvalue = [177, 2]\nclass = ham", fillcolor="#e5823b"] ;
274 -> 275 ;
276 [label="yun <= 0.228\ngini = 0.022\nsamples = 178\nvalue = [176, 2]\nclass = ham", fillcolor="#e5823b"] ;
275 -> 276 ;
277 [label="group <= 0.34\ngini = 0.022\nsamples = 177\nvalue = [175, 2]\nclass = ham", fillcolor="#e5823b"] ;
276 -> 277 ;
278 [label="weather <= 0.5\ngini = 0.022\nsamples = 176\nvalue = [174, 2]\nclass = ham", fillcolor="#e5823b"] ;
277 -> 278 ;
279 [label="juz <= 0.26\ngini = 0.023\nsamples = 175\nvalue = [173, 2]\nclass = ham", fillcolor="#e5823b"] ;
278 -> 279 ;
280 [label="small <= 0.5\ngini = 0.023\nsamples = 174\nvalue = [172, 2]\nclass = ham", fillcolor="#e5823b"] ;
279 -> 280 ;
281 [label="rain <= 0.332\ngini = 0.023\nsamples = 173\nvalue = [171, 2]\nclass = ham", fillcolor="#e5823b"] ;
280 -> 281 ;
282 [label="dint <= 0.386\ngini = 0.023\nsamples = 172\nvalue = [170, 2]\nclass = ham", fillcolor="#e5823b"] ;
281 -> 282 ;
283 [label="bcum <= 0.308\ngini = 0.023\nsamples = 171\nvalue = [169, 2]\nclass = ham", fillcolor="#e5823b"] ;
282 -> 283 ;
284 [label="respond <= 0.5\ngini = 0.023\nsamples = 170\nvalue = [168, 2]\nclass = ham", fillcolor="#e5823b"] ;
283 -> 284 ;
285 [label="anytim <= 0.5\ngini = 0.023\nsamples = 169\nvalue = [167, 2]\nclass = ham", fillcolor="#e5833b"] ;
284 -> 285 ;
286 [label="romant <= 0.5\ngini = 0.024\nsamples = 168\nvalue = [166, 2]\nclass = ham", fillcolor="#e5833b"] ;
285 -> 286 ;
287 [label="line <= 0.235\ngini = 0.024\nsamples = 167\nvalue = [165, 2]\nclass = ham", fillcolor="#e5833b"] ;
286 -> 287 ;
288 [label="slow <= 0.5\ngini = 0.024\nsamples = 166\nvalue = [164, 2]\nclass = ham", fillcolor="#e5833b"] ;
287 -> 288 ;
289 [label="pop <= 0.345\ngini = 0.024\nsamples = 165\nvalue = [163, 2]\nclass = ham", fillcolor="#e5833b"] ;
288 -> 289 ;
290 [label="ve <= 0.5\ngini = 0.024\nsamples = 164\nvalue = [162, 2]\nclass = ham", fillcolor="#e5833b"] ;
289 -> 290 ;
291 [label="pub <= 0.5\ngini = 0.024\nsamples = 163\nvalue = [161, 2]\nclass = ham", fillcolor="#e5833b"] ;
290 -> 291 ;
292 [label="bf <= 0.302\ngini = 0.024\nsamples = 162\nvalue = [160, 2]\nclass = ham", fillcolor="#e5833b"] ;
291 -> 292 ;
293 [label="yo <= 0.5\ngini = 0.025\nsamples = 161\nvalue = [159, 2]\nclass = ham", fillcolor="#e5833b"] ;
292 -> 293 ;
294 [label="lead <= 0.368\ngini = 0.025\nsamples = 160\nvalue = [158, 2]\nclass = ham", fillcolor="#e5833c"] ;
293 -> 294 ;
295 [label="lmao <= 0.396\ngini = 0.025\nsamples = 159\nvalue = [157, 2]\nclass = ham", fillcolor="#e5833c"] ;
294 -> 295 ;
296 [label="rememb <= 0.5\ngini = 0.025\nsamples = 158\nvalue = [156, 2]\nclass = ham", fillcolor="#e5833c"] ;
295 -> 296 ;
297 [label="wish <= 0.5\ngini = 0.025\nsamples = 157\nvalue = [155, 2]\nclass = ham", fillcolor="#e5833c"] ;
296 -> 297 ;
298 [label="sunday <= 0.39\ngini = 0.025\nsamples = 156\nvalue = [154, 2]\nclass = ham", fillcolor="#e5833c"] ;
297 -> 298 ;
299 [label="understand <= 0.5\ngini = 0.025\nsamples = 155\nvalue = [153, 2]\nclass = ham", fillcolor="#e5833c"] ;
298 -> 299 ;
300 [label="crazi <= 0.5\ngini = 0.026\nsamples = 154\nvalue = [152, 2]\nclass = ham", fillcolor="#e5833c"] ;
299 -> 300 ;
301 [label="sec <= 0.5\ngini = 0.026\nsamples = 153\nvalue = [151, 2]\nclass = ham", fillcolor="#e5833c"] ;
300 -> 301 ;
302 [label="away <= 0.5\ngini = 0.026\nsamples = 152\nvalue = [150, 2]\nclass = ham", fillcolor="#e5833c"] ;
301 -> 302 ;
303 [label="bless <= 0.34\ngini = 0.026\nsamples = 151\nvalue = [149, 2]\nclass = ham", fillcolor="#e5833c"] ;
302 -> 303 ;
304 [label="ma <= 0.415\ngini = 0.026\nsamples = 150\nvalue = [148, 2]\nclass = ham", fillcolor="#e5833c"] ;
303 -> 304 ;
305 [label="space <= 0.5\ngini = 0.026\nsamples = 149\nvalue = [147, 2]\nclass = ham", fillcolor="#e5833c"] ;
304 -> 305 ;
306 [label="hook <= 0.458\ngini = 0.027\nsamples = 148\nvalue = [146, 2]\nclass = ham", fillcolor="#e5833c"] ;
305 -> 306 ;
307 [label="eye <= 0.5\ngini = 0.027\nsamples = 147\nvalue = [145, 2]\nclass = ham", fillcolor="#e5833c"] ;
306 -> 307 ;
308 [label="import <= 0.352\ngini = 0.027\nsamples = 146\nvalue = [144, 2]\nclass = ham", fillcolor="#e5833c"] ;
307 -> 308 ;
309 [label="especi <= 0.338\ngini = 0.027\nsamples = 145\nvalue = [143, 2]\nclass = ham", fillcolor="#e5833c"] ;
308 -> 309 ;
310 [label="cours <= 0.5\ngini = 0.027\nsamples = 144\nvalue = [142, 2]\nclass = ham", fillcolor="#e5833c"] ;
309 -> 310 ;
311 [label="minut <= 0.319\ngini = 0.028\nsamples = 143\nvalue = [141, 2]\nclass = ham", fillcolor="#e5833c"] ;
310 -> 311 ;
312 [label="alrit <= 0.5\ngini = 0.028\nsamples = 142\nvalue = [140, 2]\nclass = ham", fillcolor="#e5833c"] ;
311 -> 312 ;
313 [label="lar <= 0.5\ngini = 0.028\nsamples = 141\nvalue = [139, 2]\nclass = ham", fillcolor="#e5833c"] ;
312 -> 313 ;
314 [label="speak <= 0.375\ngini = 0.028\nsamples = 140\nvalue = [138, 2]\nclass = ham", fillcolor="#e5833c"] ;
313 -> 314 ;
315 [label="torch <= 0.5\ngini = 0.028\nsamples = 139\nvalue = [137, 2]\nclass = ham", fillcolor="#e5833c"] ;
314 -> 315 ;
316 [label="hostel <= 0.366\ngini = 0.029\nsamples = 138\nvalue = [136, 2]\nclass = ham", fillcolor="#e5833c"] ;
315 -> 316 ;
317 [label="hope <= 0.241\ngini = 0.029\nsamples = 137\nvalue = [135, 2]\nclass = ham", fillcolor="#e5833c"] ;
316 -> 317 ;
318 [label="merri <= 0.356\ngini = 0.029\nsamples = 136\nvalue = [134, 2]\nclass = ham", fillcolor="#e5833c"] ;
317 -> 318 ;
319 [label="post <= 0.5\ngini = 0.029\nsamples = 135\nvalue = [133, 2]\nclass = ham", fillcolor="#e5833c"] ;
318 -> 319 ;
320 [label="usual <= 0.292\ngini = 0.029\nsamples = 134\nvalue = [132, 2]\nclass = ham", fillcolor="#e5833c"] ;
319 -> 320 ;
321 [label="cook <= 0.399\ngini = 0.03\nsamples = 133\nvalue = [131, 2]\nclass = ham", fillcolor="#e5833c"] ;
320 -> 321 ;
322 [label="st <= 0.5\ngini = 0.03\nsamples = 132\nvalue = [130, 2]\nclass = ham", fillcolor="#e5833c"] ;
321 -> 322 ;
323 [label="hai <= 0.5\ngini = 0.03\nsamples = 131\nvalue = [129, 2]\nclass = ham", fillcolor="#e5833c"] ;
322 -> 323 ;
324 [label="pleasur <= 0.346\ngini = 0.03\nsamples = 130\nvalue = [128, 2]\nclass = ham", fillcolor="#e5833c"] ;
323 -> 324 ;
325 [label="ah <= 0.235\ngini = 0.031\nsamples = 129\nvalue = [127, 2]\nclass = ham", fillcolor="#e5833c"] ;
324 -> 325 ;
326 [label="shit <= 0.5\ngini = 0.031\nsamples = 128\nvalue = [126, 2]\nclass = ham", fillcolor="#e5833c"] ;
325 -> 326 ;
327 [label="credit <= 0.235\ngini = 0.031\nsamples = 127\nvalue = [125, 2]\nclass = ham", fillcolor="#e5833c"] ;
326 -> 327 ;
328 [label="bed <= 0.5\ngini = 0.031\nsamples = 126\nvalue = [124, 2]\nclass = ham", fillcolor="#e5833c"] ;
327 -> 328 ;
329 [label="asleep <= 0.5\ngini = 0.031\nsamples = 125\nvalue = [123, 2]\nclass = ham", fillcolor="#e5833c"] ;
328 -> 329 ;
330 [label="mum <= 0.5\ngini = 0.032\nsamples = 124\nvalue = [122, 2]\nclass = ham", fillcolor="#e5833c"] ;
329 -> 330 ;
331 [label="mood <= 0.341\ngini = 0.032\nsamples = 123\nvalue = [121, 2]\nclass = ham", fillcolor="#e5833c"] ;
330 -> 331 ;
332 [label="film <= 0.5\ngini = 0.032\nsamples = 122\nvalue = [120, 2]\nclass = ham", fillcolor="#e5833c"] ;
331 -> 332 ;
333 [label="haven <= 0.281\ngini = 0.033\nsamples = 121\nvalue = [119, 2]\nclass = ham", fillcolor="#e5833c"] ;
332 -> 333 ;
334 [label="holla <= 0.394\ngini = 0.033\nsamples = 120\nvalue = [118, 2]\nclass = ham", fillcolor="#e5833c"] ;
333 -> 334 ;
335 [label="second <= 0.338\ngini = 0.033\nsamples = 119\nvalue = [117, 2]\nclass = ham", fillcolor="#e5833c"] ;
334 -> 335 ;
336 [label="nite <= 0.5\ngini = 0.033\nsamples = 118\nvalue = [116, 2]\nclass = ham", fillcolor="#e5833c"] ;
335 -> 336 ;
337 [label="gd <= 0.5\ngini = 0.034\nsamples = 117\nvalue = [115, 2]\nclass = ham", fillcolor="#e5833c"] ;
336 -> 337 ;
338 [label="sir <= 0.5\ngini = 0.034\nsamples = 116\nvalue = [114, 2]\nclass = ham", fillcolor="#e5833c"] ;
337 -> 338 ;
339 [label="yesterday <= 0.307\ngini = 0.034\nsamples = 115\nvalue = [113, 2]\nclass = ham", fillcolor="#e5833d"] ;
338 -> 339 ;
340 [label="appoint <= 0.5\ngini = 0.034\nsamples = 114\nvalue = [112, 2]\nclass = ham", fillcolor="#e5833d"] ;
339 -> 340 ;
341 [label="umma <= 0.5\ngini = 0.035\nsamples = 113\nvalue = [111, 2]\nclass = ham", fillcolor="#e5833d"] ;
340 -> 341 ;
342 [label="gonna <= 0.297\ngini = 0.035\nsamples = 112\nvalue = [110, 2]\nclass = ham", fillcolor="#e5833d"] ;
341 -> 342 ;
343 [label="outsid <= 0.5\ngini = 0.035\nsamples = 111\nvalue = [109, 2]\nclass = ham", fillcolor="#e5833d"] ;
342 -> 343 ;
344 [label="die <= 0.5\ngini = 0.036\nsamples = 110\nvalue = [108, 2]\nclass = ham", fillcolor="#e5833d"] ;
343 -> 344 ;
345 [label="amt <= 0.5\ngini = 0.036\nsamples = 109\nvalue = [107, 2]\nclass = ham", fillcolor="#e5833d"] ;
344 -> 345 ;
346 [label="expect <= 0.5\ngini = 0.036\nsamples = 108\nvalue = [106, 2]\nclass = ham", fillcolor="#e5833d"] ;
345 -> 346 ;
347 [label="wana <= 0.5\ngini = 0.037\nsamples = 107\nvalue = [105, 2]\nclass = ham", fillcolor="#e5833d"] ;
346 -> 347 ;
348 [label="pleas <= 0.5\ngini = 0.037\nsamples = 106\nvalue = [104, 2]\nclass = ham", fillcolor="#e6833d"] ;
347 -> 348 ;
349 [label="piec <= 0.5\ngini = 0.037\nsamples = 105\nvalue = [103, 2]\nclass = ham", fillcolor="#e6833d"] ;
348 -> 349 ;
350 [label="differ <= 0.344\ngini = 0.038\nsamples = 104\nvalue = [102, 2]\nclass = ham", fillcolor="#e6833d"] ;
349 -> 350 ;
351 [label="attend <= 0.5\ngini = 0.038\nsamples = 103\nvalue = [101, 2]\nclass = ham", fillcolor="#e6833d"] ;
350 -> 351 ;
352 [label="egg <= 0.36\ngini = 0.038\nsamples = 102\nvalue = [100, 2]\nclass = ham", fillcolor="#e6843d"] ;
351 -> 352 ;
353 [label="print <= 0.5\ngini = 0.039\nsamples = 101\nvalue = [99, 2]\nclass = ham", fillcolor="#e6843d"] ;
352 -> 353 ;
354 [label="remain <= 0.5\ngini = 0.039\nsamples = 100\nvalue = [98, 2]\nclass = ham", fillcolor="#e6843d"] ;
353 -> 354 ;
355 [label="cost <= 0.5\ngini = 0.04\nsamples = 99\nvalue = [97, 2]\nclass = ham", fillcolor="#e6843d"] ;
354 -> 355 ;
356 [label="trip <= 0.5\ngini = 0.04\nsamples = 98\nvalue = [96, 2]\nclass = ham", fillcolor="#e6843d"] ;
355 -> 356 ;
357 [label="moment <= 0.365\ngini = 0.04\nsamples = 97\nvalue = [95, 2]\nclass = ham", fillcolor="#e6843d"] ;
356 -> 357 ;
358 [label="fone <= 0.5\ngini = 0.041\nsamples = 96\nvalue = [94, 2]\nclass = ham", fillcolor="#e6843d"] ;
357 -> 358 ;
359 [label="gas <= 0.336\ngini = 0.041\nsamples = 95\nvalue = [93, 2]\nclass = ham", fillcolor="#e6843d"] ;
358 -> 359 ;
360 [label="wear <= 0.5\ngini = 0.042\nsamples = 94\nvalue = [92, 2]\nclass = ham", fillcolor="#e6843d"] ;
359 -> 360 ;
361 [label="game <= 0.5\ngini = 0.042\nsamples = 93\nvalue = [91, 2]\nclass = ham", fillcolor="#e6843d"] ;
360 -> 361 ;
362 [label="ship <= 0.387\ngini = 0.043\nsamples = 92\nvalue = [90, 2]\nclass = ham", fillcolor="#e6843d"] ;
361 -> 362 ;
363 [label="simpl <= 0.5\ngini = 0.043\nsamples = 91\nvalue = [89, 2]\nclass = ham", fillcolor="#e6843d"] ;
362 -> 363 ;
364 [label="tv <= 0.5\ngini = 0.043\nsamples = 90\nvalue = [88, 2]\nclass = ham", fillcolor="#e6843d"] ;
363 -> 364 ;
365 [label="jus <= 0.5\ngini = 0.044\nsamples = 89\nvalue = [87, 2]\nclass = ham", fillcolor="#e6843e"] ;
364 -> 365 ;
366 [label="nope <= 0.5\ngini = 0.044\nsamples = 88\nvalue = [86, 2]\nclass = ham", fillcolor="#e6843e"] ;
365 -> 366 ;
367 [label="treat <= 0.5\ngini = 0.045\nsamples = 87\nvalue = [85, 2]\nclass = ham", fillcolor="#e6843e"] ;
366 -> 367 ;
368 [label="sad <= 0.5\ngini = 0.045\nsamples = 86\nvalue = [84, 2]\nclass = ham", fillcolor="#e6843e"] ;
367 -> 368 ;
369 [label="congratul <= 0.5\ngini = 0.046\nsamples = 85\nvalue = [83, 2]\nclass = ham", fillcolor="#e6843e"] ;
368 -> 369 ;
370 [label="midnight <= 0.5\ngini = 0.046\nsamples = 84\nvalue = [82, 2]\nclass = ham", fillcolor="#e6843e"] ;
369 -> 370 ;
371 [label="power <= 0.5\ngini = 0.047\nsamples = 83\nvalue = [81, 2]\nclass = ham", fillcolor="#e6843e"] ;
370 -> 371 ;
372 [label="respect <= 0.5\ngini = 0.048\nsamples = 82\nvalue = [80, 2]\nclass = ham", fillcolor="#e6843e"] ;
371 -> 372 ;
373 [label="thursday <= 0.5\ngini = 0.048\nsamples = 81\nvalue = [79, 2]\nclass = ham", fillcolor="#e6843e"] ;
372 -> 373 ;
374 [label="depend <= 0.5\ngini = 0.049\nsamples = 80\nvalue = [78, 2]\nclass = ham", fillcolor="#e6843e"] ;
373 -> 374 ;
375 [label="boytoy <= 0.5\ngini = 0.049\nsamples = 79\nvalue = [77, 2]\nclass = ham", fillcolor="#e6843e"] ;
374 -> 375 ;
376 [label="pussi <= 0.5\ngini = 0.05\nsamples = 78\nvalue = [76, 2]\nclass = ham", fillcolor="#e6843e"] ;
375 -> 376 ;
377 [label="gini = 0.051\nsamples = 77\nvalue = [75, 2]\nclass = ham", fillcolor="#e6843e"] ;
376 -> 377 ;
378 [label="gini = 0.0\nsamples = 1\nvalue = [1, 0]\nclass = ham", fillcolor="#e58139"] ;
376 -> 378 ;
379 [label="gini = 0.0\nsamples = 1\nvalue = [1, 0]\nclass = ham", fillcolor="#e58139"] ;
375 -> 379 ;
380 [label="gini = 0.0\nsamples = 1\nvalue = [1, 0]\nclass = ham", fillcolor="#e58139"] ;
374 -> 380 ;
381 [label="gini = 0.0\nsamples = 1\nvalue = [1, 0]\nclass = ham", fillcolor="#e58139"] ;
373 -> 381 ;
382 [label="gini = 0.0\nsamples = 1\nvalue = [1, 0]\nclass = ham", fillcolor="#e58139"] ;
372 -> 382 ;
383 [label="gini = 0.0\nsamples = 1\nvalue = [1, 0]\nclass = ham", fillcolor="#e58139"] ;
371 -> 383 ;
384 [label="gini = 0.0\nsamples = 1\nvalue = [1, 0]\nclass = ham", fillcolor="#e58139"] ;
370 -> 384 ;
385 [label="gini = 0.0\nsamples = 1\nvalue = [1, 0]\nclass = ham", fillcolor="#e58139"] ;
369 -> 385 ;
386 [label="gini = 0.0\nsamples = 1\nvalue = [1, 0]\nclass = ham", fillcolor="#e58139"] ;
368 -> 386 ;
387 [label="gini = 0.0\nsamples = 1\nvalue = [1, 0]\nclass = ham", fillcolor="#e58139"] ;
367 -> 387 ;
388 [label="gini = 0.0\nsamples = 1\nvalue = [1, 0]\nclass = ham", fillcolor="#e58139"] ;
366 -> 388 ;
389 [label="gini = 0.0\nsamples = 1\nvalue = [1, 0]\nclass = ham", fillcolor="#e58139"] ;
365 -> 389 ;
390 [label="gini = 0.0\nsamples = 1\nvalue = [1, 0]\nclass = ham", fillcolor="#e58139"] ;
364 -> 390 ;
391 [label="gini = 0.0\nsamples = 1\nvalue = [1, 0]\nclass = ham", fillcolor="#e58139"] ;
363 -> 391 ;
392 [label="gini = 0.0\nsamples = 1\nvalue = [1, 0]\nclass = ham", fillcolor="#e58139"] ;
362 -> 392 ;
393 [label="gini = 0.0\nsamples = 1\nvalue = [1, 0]\nclass = ham", fillcolor="#e58139"] ;
361 -> 393 ;
394 [label="gini = 0.0\nsamples = 1\nvalue = [1, 0]\nclass = ham", fillcolor="#e58139"] ;
360 -> 394 ;
395 [label="gini = 0.0\nsamples = 1\nvalue = [1, 0]\nclass = ham", fillcolor="#e58139"] ;
359 -> 395 ;
396 [label="gini = 0.0\nsamples = 1\nvalue = [1, 0]\nclass = ham", fillcolor="#e58139"] ;
358 -> 396 ;
397 [label="gini = 0.0\nsamples = 1\nvalue = [1, 0]\nclass = ham", fillcolor="#e58139"] ;
357 -> 397 ;
398 [label="gini = 0.0\nsamples = 1\nvalue = [1, 0]\nclass = ham", fillcolor="#e58139"] ;
356 -> 398 ;
399 [label="gini = 0.0\nsamples = 1\nvalue = [1, 0]\nclass = ham", fillcolor="#e58139"] ;
355 -> 399 ;
400 [label="gini = 0.0\nsamples = 1\nvalue = [1, 0]\nclass = ham", fillcolor="#e58139"] ;
354 -> 400 ;
401 [label="gini = 0.0\nsamples = 1\nvalue = [1, 0]\nclass = ham", fillcolor="#e58139"] ;
353 -> 401 ;
402 [label="gini = 0.0\nsamples = 1\nvalue = [1, 0]\nclass = ham", fillcolor="#e58139"] ;
352 -> 402 ;
403 [label="gini = 0.0\nsamples = 1\nvalue = [1, 0]\nclass = ham", fillcolor="#e58139"] ;
351 -> 403 ;
404 [label="gini = 0.0\nsamples = 1\nvalue = [1, 0]\nclass = ham", fillcolor="#e58139"] ;
350 -> 404 ;
405 [label="gini = 0.0\nsamples = 1\nvalue = [1, 0]\nclass = ham", fillcolor="#e58139"] ;
349 -> 405 ;
406 [label="gini = 0.0\nsamples = 1\nvalue = [1, 0]\nclass = ham", fillcolor="#e58139"] ;
348 -> 406 ;
407 [label="gini = 0.0\nsamples = 1\nvalue = [1, 0]\nclass = ham", fillcolor="#e58139"] ;
347 -> 407 ;
408 [label="gini = 0.0\nsamples = 1\nvalue = [1, 0]\nclass = ham", fillcolor="#e58139"] ;
346 -> 408 ;
409 [label="gini = 0.0\nsamples = 1\nvalue = [1, 0]\nclass = ham", fillcolor="#e58139"] ;
345 -> 409 ;
410 [label="gini = 0.0\nsamples = 1\nvalue = [1, 0]\nclass = ham", fillcolor="#e58139"] ;
344 -> 410 ;
411 [label="gini = 0.0\nsamples = 1\nvalue = [1, 0]\nclass = ham", fillcolor="#e58139"] ;
343 -> 411 ;
412 [label="gini = 0.0\nsamples = 1\nvalue = [1, 0]\nclass = ham", fillcolor="#e58139"] ;
342 -> 412 ;
413 [label="gini = 0.0\nsamples = 1\nvalue = [1, 0]\nclass = ham", fillcolor="#e58139"] ;
341 -> 413 ;
414 [label="gini = 0.0\nsamples = 1\nvalue = [1, 0]\nclass = ham", fillcolor="#e58139"] ;
340 -> 414 ;
415 [label="gini = 0.0\nsamples = 1\nvalue = [1, 0]\nclass = ham", fillcolor="#e58139"] ;
339 -> 415 ;
416 [label="gini = 0.0\nsamples = 1\nvalue = [1, 0]\nclass = ham", fillcolor="#e58139"] ;
338 -> 416 ;
417 [label="gini = 0.0\nsamples = 1\nvalue = [1, 0]\nclass = ham", fillcolor="#e58139"] ;
337 -> 417 ;
418 [label="gini = 0.0\nsamples = 1\nvalue = [1, 0]\nclass = ham", fillcolor="#e58139"] ;
336 -> 418 ;
419 [label="gini = 0.0\nsamples = 1\nvalue = [1, 0]\nclass = ham", fillcolor="#e58139"] ;
335 -> 419 ;
420 [label="gini = 0.0\nsamples = 1\nvalue = [1, 0]\nclass = ham", fillcolor="#e58139"] ;
334 -> 420 ;
421 [label="gini = 0.0\nsamples = 1\nvalue = [1, 0]\nclass = ham", fillcolor="#e58139"] ;
333 -> 421 ;
422 [label="gini = 0.0\nsamples = 1\nvalue = [1, 0]\nclass = ham", fillcolor="#e58139"] ;
332 -> 422 ;
423 [label="gini = 0.0\nsamples = 1\nvalue = [1, 0]\nclass = ham", fillcolor="#e58139"] ;
331 -> 423 ;
424 [label="gini = 0.0\nsamples = 1\nvalue = [1, 0]\nclass = ham", fillcolor="#e58139"] ;
330 -> 424 ;
425 [label="gini = 0.0\nsamples = 1\nvalue = [1, 0]\nclass = ham", fillcolor="#e58139"] ;
329 -> 425 ;
426 [label="gini = 0.0\nsamples = 1\nvalue = [1, 0]\nclass = ham", fillcolor="#e58139"] ;
328 -> 426 ;
427 [label="gini = 0.0\nsamples = 1\nvalue = [1, 0]\nclass = ham", fillcolor="#e58139"] ;
327 -> 427 ;
428 [label="gini = 0.0\nsamples = 1\nvalue = [1, 0]\nclass = ham", fillcolor="#e58139"] ;
326 -> 428 ;
429 [label="gini = 0.0\nsamples = 1\nvalue = [1, 0]\nclass = ham", fillcolor="#e58139"] ;
325 -> 429 ;
430 [label="gini = 0.0\nsamples = 1\nvalue = [1, 0]\nclass = ham", fillcolor="#e58139"] ;
324 -> 430 ;
431 [label="gini = 0.0\nsamples = 1\nvalue = [1, 0]\nclass = ham", fillcolor="#e58139"] ;
323 -> 431 ;
432 [label="gini = 0.0\nsamples = 1\nvalue = [1, 0]\nclass = ham", fillcolor="#e58139"] ;
322 -> 432 ;
433 [label="gini = 0.0\nsamples = 1\nvalue = [1, 0]\nclass = ham", fillcolor="#e58139"] ;
321 -> 433 ;
434 [label="gini = 0.0\nsamples = 1\nvalue = [1, 0]\nclass = ham", fillcolor="#e58139"] ;
320 -> 434 ;
435 [label="gini = 0.0\nsamples = 1\nvalue = [1, 0]\nclass = ham", fillcolor="#e58139"] ;
319 -> 435 ;
436 [label="gini = 0.0\nsamples = 1\nvalue = [1, 0]\nclass = ham", fillcolor="#e58139"] ;
318 -> 436 ;
437 [label="gini = 0.0\nsamples = 1\nvalue = [1, 0]\nclass = ham", fillcolor="#e58139"] ;
317 -> 437 ;
438 [label="gini = 0.0\nsamples = 1\nvalue = [1, 0]\nclass = ham", fillcolor="#e58139"] ;
316 -> 438 ;
439 [label="gini = 0.0\nsamples = 1\nvalue = [1, 0]\nclass = ham", fillcolor="#e58139"] ;
315 -> 439 ;
440 [label="gini = 0.0\nsamples = 1\nvalue = [1, 0]\nclass = ham", fillcolor="#e58139"] ;
314 -> 440 ;
441 [label="gini = 0.0\nsamples = 1\nvalue = [1, 0]\nclass = ham", fillcolor="#e58139"] ;
313 -> 441 ;
442 [label="gini = 0.0\nsamples = 1\nvalue = [1, 0]\nclass = ham", fillcolor="#e58139"] ;
312 -> 442 ;
443 [label="gini = 0.0\nsamples = 1\nvalue = [1, 0]\nclass = ham", fillcolor="#e58139"] ;
311 -> 443 ;
444 [label="gini = 0.0\nsamples = 1\nvalue = [1, 0]\nclass = ham", fillcolor="#e58139"] ;
310 -> 444 ;
445 [label="gini = 0.0\nsamples = 1\nvalue = [1, 0]\nclass = ham", fillcolor="#e58139"] ;
309 -> 445 ;
446 [label="gini = 0.0\nsamples = 1\nvalue = [1, 0]\nclass = ham", fillcolor="#e58139"] ;
308 -> 446 ;
447 [label="gini = 0.0\nsamples = 1\nvalue = [1, 0]\nclass = ham", fillcolor="#e58139"] ;
307 -> 447 ;
448 [label="gini = 0.0\nsamples = 1\nvalue = [1, 0]\nclass = ham", fillcolor="#e58139"] ;
306 -> 448 ;
449 [label="gini = 0.0\nsamples = 1\nvalue = [1, 0]\nclass = ham", fillcolor="#e58139"] ;
305 -> 449 ;
450 [label="gini = 0.0\nsamples = 1\nvalue = [1, 0]\nclass = ham", fillcolor="#e58139"] ;
304 -> 450 ;
451 [label="gini = 0.0\nsamples = 1\nvalue = [1, 0]\nclass = ham", fillcolor="#e58139"] ;
303 -> 451 ;
452 [label="gini = 0.0\nsamples = 1\nvalue = [1, 0]\nclass = ham", fillcolor="#e58139"] ;
302 -> 452 ;
453 [label="gini = 0.0\nsamples = 1\nvalue = [1, 0]\nclass = ham", fillcolor="#e58139"] ;
301 -> 453 ;
454 [label="gini = 0.0\nsamples = 1\nvalue = [1, 0]\nclass = ham", fillcolor="#e58139"] ;
300 -> 454 ;
455 [label="gini = 0.0\nsamples = 1\nvalue = [1, 0]\nclass = ham", fillcolor="#e58139"] ;
299 -> 455 ;
456 [label="gini = 0.0\nsamples = 1\nvalue = [1, 0]\nclass = ham", fillcolor="#e58139"] ;
298 -> 456 ;
457 [label="gini = 0.0\nsamples = 1\nvalue = [1, 0]\nclass = ham", fillcolor="#e58139"] ;
297 -> 457 ;
458 [label="gini = 0.0\nsamples = 1\nvalue = [1, 0]\nclass = ham", fillcolor="#e58139"] ;
296 -> 458 ;
459 [label="gini = 0.0\nsamples = 1\nvalue = [1, 0]\nclass = ham", fillcolor="#e58139"] ;
295 -> 459 ;
460 [label="gini = 0.0\nsamples = 1\nvalue = [1, 0]\nclass = ham", fillcolor="#e58139"] ;
294 -> 460 ;
461 [label="gini = 0.0\nsamples = 1\nvalue = [1, 0]\nclass = ham", fillcolor="#e58139"] ;
293 -> 461 ;
462 [label="gini = 0.0\nsamples = 1\nvalue = [1, 0]\nclass = ham", fillcolor="#e58139"] ;
292 -> 462 ;
463 [label="gini = 0.0\nsamples = 1\nvalue = [1, 0]\nclass = ham", fillcolor="#e58139"] ;
291 -> 463 ;
464 [label="gini = 0.0\nsamples = 1\nvalue = [1, 0]\nclass = ham", fillcolor="#e58139"] ;
290 -> 464 ;
465 [label="gini = 0.0\nsamples = 1\nvalue = [1, 0]\nclass = ham", fillcolor="#e58139"] ;
289 -> 465 ;
466 [label="gini = 0.0\nsamples = 1\nvalue = [1, 0]\nclass = ham", fillcolor="#e58139"] ;
288 -> 466 ;
467 [label="gini = 0.0\nsamples = 1\nvalue = [1, 0]\nclass = ham", fillcolor="#e58139"] ;
287 -> 467 ;
468 [label="gini = 0.0\nsamples = 1\nvalue = [1, 0]\nclass = ham", fillcolor="#e58139"] ;
286 -> 468 ;
469 [label="gini = 0.0\nsamples = 1\nvalue = [1, 0]\nclass = ham", fillcolor="#e58139"] ;
285 -> 469 ;
470 [label="gini = 0.0\nsamples = 1\nvalue = [1, 0]\nclass = ham", fillcolor="#e58139"] ;
284 -> 470 ;
471 [label="gini = 0.0\nsamples = 1\nvalue = [1, 0]\nclass = ham", fillcolor="#e58139"] ;
283 -> 471 ;
472 [label="gini = 0.0\nsamples = 1\nvalue = [1, 0]\nclass = ham", fillcolor="#e58139"] ;
282 -> 472 ;
473 [label="gini = 0.0\nsamples = 1\nvalue = [1, 0]\nclass = ham", fillcolor="#e58139"] ;
281 -> 473 ;
474 [label="gini = 0.0\nsamples = 1\nvalue = [1, 0]\nclass = ham", fillcolor="#e58139"] ;
280 -> 474 ;
475 [label="gini = 0.0\nsamples = 1\nvalue = [1, 0]\nclass = ham", fillcolor="#e58139"] ;
279 -> 475 ;
476 [label="gini = 0.0\nsamples = 1\nvalue = [1, 0]\nclass = ham", fillcolor="#e58139"] ;
278 -> 476 ;
477 [label="gini = 0.0\nsamples = 1\nvalue = [1, 0]\nclass = ham", fillcolor="#e58139"] ;
277 -> 477 ;
478 [label="gini = 0.0\nsamples = 1\nvalue = [1, 0]\nclass = ham", fillcolor="#e58139"] ;
276 -> 478 ;
479 [label="gini = 0.0\nsamples = 1\nvalue = [1, 0]\nclass = ham", fillcolor="#e58139"] ;
275 -> 479 ;
480 [label="gini = 0.0\nsamples = 1\nvalue = [1, 0]\nclass = ham", fillcolor="#e58139"] ;
274 -> 480 ;
481 [label="gini = 0.0\nsamples = 1\nvalue = [1, 0]\nclass = ham", fillcolor="#e58139"] ;
273 -> 481 ;
482 [label="gini = 0.0\nsamples = 1\nvalue = [1, 0]\nclass = ham", fillcolor="#e58139"] ;
272 -> 482 ;
483 [label="gini = 0.0\nsamples = 1\nvalue = [1, 0]\nclass = ham", fillcolor="#e58139"] ;
271 -> 483 ;
484 [label="gini = 0.0\nsamples = 1\nvalue = [1, 0]\nclass = ham", fillcolor="#e58139"] ;
270 -> 484 ;
485 [label="gini = 0.0\nsamples = 1\nvalue = [1, 0]\nclass = ham", fillcolor="#e58139"] ;
269 -> 485 ;
486 [label="gini = 0.0\nsamples = 1\nvalue = [1, 0]\nclass = ham", fillcolor="#e58139"] ;
268 -> 486 ;
487 [label="gini = 0.0\nsamples = 1\nvalue = [1, 0]\nclass = ham", fillcolor="#e58139"] ;
267 -> 487 ;
488 [label="gini = 0.0\nsamples = 1\nvalue = [1, 0]\nclass = ham", fillcolor="#e58139"] ;
266 -> 488 ;
489 [label="gini = 0.0\nsamples = 1\nvalue = [1, 0]\nclass = ham", fillcolor="#e58139"] ;
265 -> 489 ;
490 [label="gini = 0.0\nsamples = 1\nvalue = [1, 0]\nclass = ham", fillcolor="#e58139"] ;
264 -> 490 ;
491 [label="gini = 0.0\nsamples = 1\nvalue = [1, 0]\nclass = ham", fillcolor="#e58139"] ;
263 -> 491 ;
492 [label="gini = 0.0\nsamples = 1\nvalue = [1, 0]\nclass = ham", fillcolor="#e58139"] ;
262 -> 492 ;
493 [label="gini = 0.0\nsamples = 1\nvalue = [1, 0]\nclass = ham", fillcolor="#e58139"] ;
261 -> 493 ;
494 [label="gini = 0.0\nsamples = 1\nvalue = [1, 0]\nclass = ham", fillcolor="#e58139"] ;
260 -> 494 ;
495 [label="gini = 0.0\nsamples = 1\nvalue = [1, 0]\nclass = ham", fillcolor="#e58139"] ;
259 -> 495 ;
496 [label="gini = 0.0\nsamples = 1\nvalue = [1, 0]\nclass = ham", fillcolor="#e58139"] ;
258 -> 496 ;
497 [label="gini = 0.0\nsamples = 1\nvalue = [1, 0]\nclass = ham", fillcolor="#e58139"] ;
257 -> 497 ;
498 [label="gini = 0.0\nsamples = 1\nvalue = [1, 0]\nclass = ham", fillcolor="#e58139"] ;
256 -> 498 ;
499 [label="gini = 0.0\nsamples = 1\nvalue = [1, 0]\nclass = ham", fillcolor="#e58139"] ;
255 -> 499 ;
500 [label="gini = 0.0\nsamples = 1\nvalue = [1, 0]\nclass = ham", fillcolor="#e58139"] ;
254 -> 500 ;
501 [label="gini = 0.0\nsamples = 1\nvalue = [1, 0]\nclass = ham", fillcolor="#e58139"] ;
253 -> 501 ;
502 [label="gini = 0.0\nsamples = 1\nvalue = [1, 0]\nclass = ham", fillcolor="#e58139"] ;
252 -> 502 ;
503 [label="gini = 0.0\nsamples = 2\nvalue = [2, 0]\nclass = ham", fillcolor="#e58139"] ;
251 -> 503 ;
504 [label="gini = 0.0\nsamples = 2\nvalue = [2, 0]\nclass = ham", fillcolor="#e58139"] ;
250 -> 504 ;
505 [label="gini = 0.0\nsamples = 2\nvalue = [2, 0]\nclass = ham", fillcolor="#e58139"] ;
249 -> 505 ;
506 [label="gini = 0.0\nsamples = 2\nvalue = [2, 0]\nclass = ham", fillcolor="#e58139"] ;
248 -> 506 ;
507 [label="gini = 0.0\nsamples = 2\nvalue = [2, 0]\nclass = ham", fillcolor="#e58139"] ;
247 -> 507 ;
508 [label="gini = 0.0\nsamples = 2\nvalue = [2, 0]\nclass = ham", fillcolor="#e58139"] ;
246 -> 508 ;
509 [label="gini = 0.0\nsamples = 2\nvalue = [2, 0]\nclass = ham", fillcolor="#e58139"] ;
245 -> 509 ;
510 [label="gini = 0.0\nsamples = 2\nvalue = [2, 0]\nclass = ham", fillcolor="#e58139"] ;
244 -> 510 ;
511 [label="gini = 0.0\nsamples = 2\nvalue = [2, 0]\nclass = ham", fillcolor="#e58139"] ;
243 -> 511 ;
512 [label="gini = 0.0\nsamples = 2\nvalue = [2, 0]\nclass = ham", fillcolor="#e58139"] ;
242 -> 512 ;
513 [label="gini = 0.0\nsamples = 2\nvalue = [2, 0]\nclass = ham", fillcolor="#e58139"] ;
241 -> 513 ;
514 [label="gini = 0.0\nsamples = 2\nvalue = [2, 0]\nclass = ham", fillcolor="#e58139"] ;
240 -> 514 ;
515 [label="gini = 0.0\nsamples = 2\nvalue = [2, 0]\nclass = ham", fillcolor="#e58139"] ;
239 -> 515 ;
516 [label="gini = 0.0\nsamples = 2\nvalue = [2, 0]\nclass = ham", fillcolor="#e58139"] ;
238 -> 516 ;
517 [label="gini = 0.0\nsamples = 2\nvalue = [2, 0]\nclass = ham", fillcolor="#e58139"] ;
237 -> 517 ;
518 [label="gini = 0.0\nsamples = 2\nvalue = [2, 0]\nclass = ham", fillcolor="#e58139"] ;
236 -> 518 ;
519 [label="gini = 0.0\nsamples = 2\nvalue = [2, 0]\nclass = ham", fillcolor="#e58139"] ;
235 -> 519 ;
520 [label="gini = 0.0\nsamples = 2\nvalue = [2, 0]\nclass = ham", fillcolor="#e58139"] ;
234 -> 520 ;
521 [label="gini = 0.0\nsamples = 2\nvalue = [2, 0]\nclass = ham", fillcolor="#e58139"] ;
233 -> 521 ;
522 [label="gini = 0.0\nsamples = 2\nvalue = [2, 0]\nclass = ham", fillcolor="#e58139"] ;
232 -> 522 ;
523 [label="gini = 0.0\nsamples = 2\nvalue = [2, 0]\nclass = ham", fillcolor="#e58139"] ;
231 -> 523 ;
524 [label="gini = 0.0\nsamples = 2\nvalue = [2, 0]\nclass = ham", fillcolor="#e58139"] ;
230 -> 524 ;
525 [label="gini = 0.0\nsamples = 2\nvalue = [2, 0]\nclass = ham", fillcolor="#e58139"] ;
229 -> 525 ;
526 [label="gini = 0.0\nsamples = 2\nvalue = [2, 0]\nclass = ham", fillcolor="#e58139"] ;
228 -> 526 ;
527 [label="gini = 0.0\nsamples = 2\nvalue = [2, 0]\nclass = ham", fillcolor="#e58139"] ;
227 -> 527 ;
528 [label="gini = 0.0\nsamples = 2\nvalue = [2, 0]\nclass = ham", fillcolor="#e58139"] ;
226 -> 528 ;
529 [label="gini = 0.0\nsamples = 2\nvalue = [2, 0]\nclass = ham", fillcolor="#e58139"] ;
225 -> 529 ;
530 [label="gini = 0.0\nsamples = 2\nvalue = [2, 0]\nclass = ham", fillcolor="#e58139"] ;
224 -> 530 ;
531 [label="gini = 0.0\nsamples = 2\nvalue = [2, 0]\nclass = ham", fillcolor="#e58139"] ;
223 -> 531 ;
532 [label="gini = 0.0\nsamples = 2\nvalue = [2, 0]\nclass = ham", fillcolor="#e58139"] ;
222 -> 532 ;
533 [label="gini = 0.0\nsamples = 2\nvalue = [2, 0]\nclass = ham", fillcolor="#e58139"] ;
221 -> 533 ;
534 [label="gini = 0.0\nsamples = 2\nvalue = [2, 0]\nclass = ham", fillcolor="#e58139"] ;
220 -> 534 ;
535 [label="gini = 0.0\nsamples = 2\nvalue = [2, 0]\nclass = ham", fillcolor="#e58139"] ;
219 -> 535 ;
536 [label="gini = 0.0\nsamples = 2\nvalue = [2, 0]\nclass = ham", fillcolor="#e58139"] ;
218 -> 536 ;
537 [label="gini = 0.0\nsamples = 2\nvalue = [2, 0]\nclass = ham", fillcolor="#e58139"] ;
217 -> 537 ;
538 [label="gini = 0.0\nsamples = 2\nvalue = [2, 0]\nclass = ham", fillcolor="#e58139"] ;
216 -> 538 ;
539 [label="gini = 0.0\nsamples = 2\nvalue = [2, 0]\nclass = ham", fillcolor="#e58139"] ;
215 -> 539 ;
540 [label="gini = 0.0\nsamples = 2\nvalue = [2, 0]\nclass = ham", fillcolor="#e58139"] ;
214 -> 540 ;
541 [label="gini = 0.0\nsamples = 2\nvalue = [2, 0]\nclass = ham", fillcolor="#e58139"] ;
213 -> 541 ;
542 [label="gini = 0.0\nsamples = 2\nvalue = [2, 0]\nclass = ham", fillcolor="#e58139"] ;
212 -> 542 ;
543 [label="gini = 0.0\nsamples = 2\nvalue = [2, 0]\nclass = ham", fillcolor="#e58139"] ;
211 -> 543 ;
544 [label="gini = 0.0\nsamples = 2\nvalue = [2, 0]\nclass = ham", fillcolor="#e58139"] ;
210 -> 544 ;
545 [label="gini = 0.0\nsamples = 2\nvalue = [2, 0]\nclass = ham", fillcolor="#e58139"] ;
209 -> 545 ;
546 [label="gini = 0.0\nsamples = 2\nvalue = [2, 0]\nclass = ham", fillcolor="#e58139"] ;
208 -> 546 ;
547 [label="gini = 0.0\nsamples = 2\nvalue = [2, 0]\nclass = ham", fillcolor="#e58139"] ;
207 -> 547 ;
548 [label="gini = 0.0\nsamples = 2\nvalue = [2, 0]\nclass = ham", fillcolor="#e58139"] ;
206 -> 548 ;
549 [label="gini = 0.0\nsamples = 2\nvalue = [2, 0]\nclass = ham", fillcolor="#e58139"] ;
205 -> 549 ;
550 [label="gini = 0.0\nsamples = 2\nvalue = [2, 0]\nclass = ham", fillcolor="#e58139"] ;
204 -> 550 ;
551 [label="gini = 0.0\nsamples = 2\nvalue = [2, 0]\nclass = ham", fillcolor="#e58139"] ;
203 -> 551 ;
552 [label="gini = 0.0\nsamples = 2\nvalue = [2, 0]\nclass = ham", fillcolor="#e58139"] ;
202 -> 552 ;
553 [label="gini = 0.0\nsamples = 3\nvalue = [3, 0]\nclass = ham", fillcolor="#e58139"] ;
201 -> 553 ;
554 [label="gini = 0.0\nsamples = 3\nvalue = [3, 0]\nclass = ham", fillcolor="#e58139"] ;
200 -> 554 ;
555 [label="gini = 0.0\nsamples = 3\nvalue = [3, 0]\nclass = ham", fillcolor="#e58139"] ;
199 -> 555 ;
556 [label="gini = 0.0\nsamples = 3\nvalue = [3, 0]\nclass = ham", fillcolor="#e58139"] ;
198 -> 556 ;
557 [label="gini = 0.0\nsamples = 3\nvalue = [3, 0]\nclass = ham", fillcolor="#e58139"] ;
197 -> 557 ;
558 [label="gini = 0.0\nsamples = 3\nvalue = [3, 0]\nclass = ham", fillcolor="#e58139"] ;
196 -> 558 ;
559 [label="gini = 0.0\nsamples = 3\nvalue = [3, 0]\nclass = ham", fillcolor="#e58139"] ;
195 -> 559 ;
560 [label="gini = 0.0\nsamples = 3\nvalue = [3, 0]\nclass = ham", fillcolor="#e58139"] ;
194 -> 560 ;
561 [label="gini = 0.0\nsamples = 3\nvalue = [3, 0]\nclass = ham", fillcolor="#e58139"] ;
193 -> 561 ;
562 [label="gini = 0.0\nsamples = 3\nvalue = [3, 0]\nclass = ham", fillcolor="#e58139"] ;
192 -> 562 ;
563 [label="gini = 0.0\nsamples = 3\nvalue = [3, 0]\nclass = ham", fillcolor="#e58139"] ;
191 -> 563 ;
564 [label="gini = 0.0\nsamples = 3\nvalue = [3, 0]\nclass = ham", fillcolor="#e58139"] ;
190 -> 564 ;
565 [label="gini = 0.0\nsamples = 3\nvalue = [3, 0]\nclass = ham", fillcolor="#e58139"] ;
189 -> 565 ;
566 [label="gini = 0.0\nsamples = 3\nvalue = [3, 0]\nclass = ham", fillcolor="#e58139"] ;
188 -> 566 ;
567 [label="gini = 0.0\nsamples = 3\nvalue = [3, 0]\nclass = ham", fillcolor="#e58139"] ;
187 -> 567 ;
568 [label="gini = 0.0\nsamples = 3\nvalue = [3, 0]\nclass = ham", fillcolor="#e58139"] ;
186 -> 568 ;
569 [label="gini = 0.0\nsamples = 3\nvalue = [3, 0]\nclass = ham", fillcolor="#e58139"] ;
185 -> 569 ;
570 [label="gini = 0.0\nsamples = 3\nvalue = [3, 0]\nclass = ham", fillcolor="#e58139"] ;
184 -> 570 ;
571 [label="gini = 0.0\nsamples = 3\nvalue = [3, 0]\nclass = ham", fillcolor="#e58139"] ;
183 -> 571 ;
572 [label="gini = 0.0\nsamples = 3\nvalue = [3, 0]\nclass = ham", fillcolor="#e58139"] ;
182 -> 572 ;
573 [label="gini = 0.0\nsamples = 3\nvalue = [3, 0]\nclass = ham", fillcolor="#e58139"] ;
181 -> 573 ;
574 [label="gini = 0.0\nsamples = 3\nvalue = [3, 0]\nclass = ham", fillcolor="#e58139"] ;
180 -> 574 ;
575 [label="gini = 0.0\nsamples = 3\nvalue = [3, 0]\nclass = ham", fillcolor="#e58139"] ;
179 -> 575 ;
576 [label="gini = 0.0\nsamples = 3\nvalue = [3, 0]\nclass = ham", fillcolor="#e58139"] ;
178 -> 576 ;
577 [label="gini = 0.0\nsamples = 3\nvalue = [3, 0]\nclass = ham", fillcolor="#e58139"] ;
177 -> 577 ;
578 [label="gini = 0.0\nsamples = 3\nvalue = [3, 0]\nclass = ham", fillcolor="#e58139"] ;
176 -> 578 ;
579 [label="gini = 0.0\nsamples = 3\nvalue = [3, 0]\nclass = ham", fillcolor="#e58139"] ;
175 -> 579 ;
580 [label="gini = 0.0\nsamples = 3\nvalue = [3, 0]\nclass = ham", fillcolor="#e58139"] ;
174 -> 580 ;
581 [label="gini = 0.0\nsamples = 3\nvalue = [3, 0]\nclass = ham", fillcolor="#e58139"] ;
173 -> 581 ;
582 [label="gini = 0.0\nsamples = 3\nvalue = [3, 0]\nclass = ham", fillcolor="#e58139"] ;
172 -> 582 ;
583 [label="gini = 0.0\nsamples = 3\nvalue = [3, 0]\nclass = ham", fillcolor="#e58139"] ;
171 -> 583 ;
584 [label="gini = 0.0\nsamples = 3\nvalue = [3, 0]\nclass = ham", fillcolor="#e58139"] ;
170 -> 584 ;
585 [label="gini = 0.0\nsamples = 4\nvalue = [4, 0]\nclass = ham", fillcolor="#e58139"] ;
169 -> 585 ;
586 [label="gini = 0.0\nsamples = 4\nvalue = [4, 0]\nclass = ham", fillcolor="#e58139"] ;
168 -> 586 ;
587 [label="gini = 0.0\nsamples = 4\nvalue = [4, 0]\nclass = ham", fillcolor="#e58139"] ;
167 -> 587 ;
588 [label="gini = 0.0\nsamples = 4\nvalue = [4, 0]\nclass = ham", fillcolor="#e58139"] ;
166 -> 588 ;
589 [label="gini = 0.0\nsamples = 4\nvalue = [4, 0]\nclass = ham", fillcolor="#e58139"] ;
165 -> 589 ;
590 [label="gini = 0.0\nsamples = 4\nvalue = [4, 0]\nclass = ham", fillcolor="#e58139"] ;
164 -> 590 ;
591 [label="gini = 0.0\nsamples = 4\nvalue = [4, 0]\nclass = ham", fillcolor="#e58139"] ;
163 -> 591 ;
592 [label="gini = 0.0\nsamples = 4\nvalue = [4, 0]\nclass = ham", fillcolor="#e58139"] ;
162 -> 592 ;
593 [label="gini = 0.0\nsamples = 4\nvalue = [4, 0]\nclass = ham", fillcolor="#e58139"] ;
161 -> 593 ;
594 [label="gini = 0.0\nsamples = 4\nvalue = [4, 0]\nclass = ham", fillcolor="#e58139"] ;
160 -> 594 ;
595 [label="gini = 0.0\nsamples = 4\nvalue = [4, 0]\nclass = ham", fillcolor="#e58139"] ;
159 -> 595 ;
596 [label="gini = 0.0\nsamples = 4\nvalue = [4, 0]\nclass = ham", fillcolor="#e58139"] ;
158 -> 596 ;
597 [label="gini = 0.0\nsamples = 4\nvalue = [4, 0]\nclass = ham", fillcolor="#e58139"] ;
157 -> 597 ;
598 [label="gini = 0.0\nsamples = 4\nvalue = [4, 0]\nclass = ham", fillcolor="#e58139"] ;
156 -> 598 ;
599 [label="gini = 0.0\nsamples = 4\nvalue = [4, 0]\nclass = ham", fillcolor="#e58139"] ;
155 -> 599 ;
600 [label="gini = 0.0\nsamples = 4\nvalue = [4, 0]\nclass = ham", fillcolor="#e58139"] ;
154 -> 600 ;
601 [label="gini = 0.0\nsamples = 5\nvalue = [5, 0]\nclass = ham", fillcolor="#e58139"] ;
153 -> 601 ;
602 [label="gini = 0.0\nsamples = 5\nvalue = [5, 0]\nclass = ham", fillcolor="#e58139"] ;
152 -> 602 ;
603 [label="gini = 0.0\nsamples = 5\nvalue = [5, 0]\nclass = ham", fillcolor="#e58139"] ;
151 -> 603 ;
604 [label="gini = 0.0\nsamples = 5\nvalue = [5, 0]\nclass = ham", fillcolor="#e58139"] ;
150 -> 604 ;
605 [label="gini = 0.0\nsamples = 5\nvalue = [5, 0]\nclass = ham", fillcolor="#e58139"] ;
149 -> 605 ;
606 [label="gini = 0.0\nsamples = 5\nvalue = [5, 0]\nclass = ham", fillcolor="#e58139"] ;
148 -> 606 ;
607 [label="gini = 0.0\nsamples = 5\nvalue = [5, 0]\nclass = ham", fillcolor="#e58139"] ;
147 -> 607 ;
608 [label="gini = 0.0\nsamples = 5\nvalue = [5, 0]\nclass = ham", fillcolor="#e58139"] ;
146 -> 608 ;
609 [label="gini = 0.0\nsamples = 5\nvalue = [5, 0]\nclass = ham", fillcolor="#e58139"] ;
145 -> 609 ;
610 [label="gini = 0.0\nsamples = 5\nvalue = [5, 0]\nclass = ham", fillcolor="#e58139"] ;
144 -> 610 ;
611 [label="gini = 0.0\nsamples = 5\nvalue = [5, 0]\nclass = ham", fillcolor="#e58139"] ;
143 -> 611 ;
612 [label="gini = 0.0\nsamples = 5\nvalue = [5, 0]\nclass = ham", fillcolor="#e58139"] ;
142 -> 612 ;
613 [label="gini = 0.0\nsamples = 5\nvalue = [5, 0]\nclass = ham", fillcolor="#e58139"] ;
141 -> 613 ;
614 [label="gini = 0.0\nsamples = 5\nvalue = [5, 0]\nclass = ham", fillcolor="#e58139"] ;
140 -> 614 ;
615 [label="gini = 0.0\nsamples = 6\nvalue = [6, 0]\nclass = ham", fillcolor="#e58139"] ;
139 -> 615 ;
616 [label="gini = 0.0\nsamples = 6\nvalue = [6, 0]\nclass = ham", fillcolor="#e58139"] ;
138 -> 616 ;
617 [label="gini = 0.0\nsamples = 6\nvalue = [6, 0]\nclass = ham", fillcolor="#e58139"] ;
137 -> 617 ;
618 [label="gini = 0.0\nsamples = 6\nvalue = [6, 0]\nclass = ham", fillcolor="#e58139"] ;
136 -> 618 ;
619 [label="gini = 0.0\nsamples = 6\nvalue = [6, 0]\nclass = ham", fillcolor="#e58139"] ;
135 -> 619 ;
620 [label="gini = 0.0\nsamples = 7\nvalue = [7, 0]\nclass = ham", fillcolor="#e58139"] ;
134 -> 620 ;
621 [label="gini = 0.0\nsamples = 7\nvalue = [7, 0]\nclass = ham", fillcolor="#e58139"] ;
133 -> 621 ;
622 [label="gini = 0.0\nsamples = 7\nvalue = [7, 0]\nclass = ham", fillcolor="#e58139"] ;
132 -> 622 ;
623 [label="gini = 0.0\nsamples = 7\nvalue = [7, 0]\nclass = ham", fillcolor="#e58139"] ;
131 -> 623 ;
624 [label="gini = 0.0\nsamples = 7\nvalue = [7, 0]\nclass = ham", fillcolor="#e58139"] ;
130 -> 624 ;
625 [label="gini = 0.0\nsamples = 7\nvalue = [7, 0]\nclass = ham", fillcolor="#e58139"] ;
129 -> 625 ;
626 [label="gini = 0.0\nsamples = 7\nvalue = [7, 0]\nclass = ham", fillcolor="#e58139"] ;
128 -> 626 ;
627 [label="gini = 0.0\nsamples = 8\nvalue = [8, 0]\nclass = ham", fillcolor="#e58139"] ;
127 -> 627 ;
628 [label="gini = 0.0\nsamples = 8\nvalue = [8, 0]\nclass = ham", fillcolor="#e58139"] ;
126 -> 628 ;
629 [label="gini = 0.0\nsamples = 8\nvalue = [8, 0]\nclass = ham", fillcolor="#e58139"] ;
125 -> 629 ;
630 [label="gini = 0.0\nsamples = 8\nvalue = [8, 0]\nclass = ham", fillcolor="#e58139"] ;
124 -> 630 ;
631 [label="gini = 0.0\nsamples = 8\nvalue = [8, 0]\nclass = ham", fillcolor="#e58139"] ;
123 -> 631 ;
632 [label="gini = 0.0\nsamples = 8\nvalue = [8, 0]\nclass = ham", fillcolor="#e58139"] ;
122 -> 632 ;
633 [label="gini = 0.0\nsamples = 8\nvalue = [8, 0]\nclass = ham", fillcolor="#e58139"] ;
121 -> 633 ;
634 [label="gini = 0.0\nsamples = 8\nvalue = [8, 0]\nclass = ham", fillcolor="#e58139"] ;
120 -> 634 ;
635 [label="gini = 0.0\nsamples = 9\nvalue = [9, 0]\nclass = ham", fillcolor="#e58139"] ;
119 -> 635 ;
636 [label="gini = 0.0\nsamples = 9\nvalue = [9, 0]\nclass = ham", fillcolor="#e58139"] ;
118 -> 636 ;
637 [label="gini = 0.0\nsamples = 9\nvalue = [9, 0]\nclass = ham", fillcolor="#e58139"] ;
117 -> 637 ;
638 [label="gini = 0.0\nsamples = 9\nvalue = [9, 0]\nclass = ham", fillcolor="#e58139"] ;
116 -> 638 ;
639 [label="gini = 0.0\nsamples = 10\nvalue = [10, 0]\nclass = ham", fillcolor="#e58139"] ;
115 -> 639 ;
640 [label="gini = 0.0\nsamples = 10\nvalue = [10, 0]\nclass = ham", fillcolor="#e58139"] ;
114 -> 640 ;
641 [label="gini = 0.0\nsamples = 10\nvalue = [10, 0]\nclass = ham", fillcolor="#e58139"] ;
113 -> 641 ;
642 [label="gini = 0.0\nsamples = 10\nvalue = [10, 0]\nclass = ham", fillcolor="#e58139"] ;
112 -> 642 ;
643 [label="gini = 0.0\nsamples = 11\nvalue = [11, 0]\nclass = ham", fillcolor="#e58139"] ;
111 -> 643 ;
644 [label="gini = 0.0\nsamples = 11\nvalue = [11, 0]\nclass = ham", fillcolor="#e58139"] ;
110 -> 644 ;
645 [label="gini = 0.0\nsamples = 11\nvalue = [11, 0]\nclass = ham", fillcolor="#e58139"] ;
109 -> 645 ;
646 [label="gini = 0.0\nsamples = 11\nvalue = [11, 0]\nclass = ham", fillcolor="#e58139"] ;
108 -> 646 ;
647 [label="gini = 0.0\nsamples = 11\nvalue = [11, 0]\nclass = ham", fillcolor="#e58139"] ;
107 -> 647 ;
648 [label="gini = 0.0\nsamples = 12\nvalue = [12, 0]\nclass = ham", fillcolor="#e58139"] ;
106 -> 648 ;
649 [label="gini = 0.0\nsamples = 13\nvalue = [13, 0]\nclass = ham", fillcolor="#e58139"] ;
105 -> 649 ;
650 [label="gini = 0.0\nsamples = 13\nvalue = [13, 0]\nclass = ham", fillcolor="#e58139"] ;
104 -> 650 ;
651 [label="gini = 0.0\nsamples = 14\nvalue = [14, 0]\nclass = ham", fillcolor="#e58139"] ;
103 -> 651 ;
652 [label="gini = 0.0\nsamples = 14\nvalue = [14, 0]\nclass = ham", fillcolor="#e58139"] ;
102 -> 652 ;
653 [label="gini = 0.0\nsamples = 15\nvalue = [15, 0]\nclass = ham", fillcolor="#e58139"] ;
101 -> 653 ;
654 [label="gini = 0.0\nsamples = 16\nvalue = [16, 0]\nclass = ham", fillcolor="#e58139"] ;
100 -> 654 ;
655 [label="gini = 0.0\nsamples = 16\nvalue = [16, 0]\nclass = ham", fillcolor="#e58139"] ;
99 -> 655 ;
656 [label="gini = 0.0\nsamples = 17\nvalue = [17, 0]\nclass = ham", fillcolor="#e58139"] ;
98 -> 656 ;
657 [label="gini = 0.0\nsamples = 17\nvalue = [17, 0]\nclass = ham", fillcolor="#e58139"] ;
97 -> 657 ;
658 [label="gini = 0.0\nsamples = 17\nvalue = [17, 0]\nclass = ham", fillcolor="#e58139"] ;
96 -> 658 ;
659 [label="gini = 0.0\nsamples = 17\nvalue = [17, 0]\nclass = ham", fillcolor="#e58139"] ;
95 -> 659 ;
660 [label="gini = 0.0\nsamples = 17\nvalue = [17, 0]\nclass = ham", fillcolor="#e58139"] ;
94 -> 660 ;
661 [label="gini = 0.0\nsamples = 18\nvalue = [18, 0]\nclass = ham", fillcolor="#e58139"] ;
93 -> 661 ;
662 [label="gini = 0.0\nsamples = 19\nvalue = [19, 0]\nclass = ham", fillcolor="#e58139"] ;
92 -> 662 ;
663 [label="gini = 0.0\nsamples = 19\nvalue = [19, 0]\nclass = ham", fillcolor="#e58139"] ;
91 -> 663 ;
664 [label="gini = 0.0\nsamples = 20\nvalue = [20, 0]\nclass = ham", fillcolor="#e58139"] ;
90 -> 664 ;
665 [label="gini = 0.0\nsamples = 20\nvalue = [20, 0]\nclass = ham", fillcolor="#e58139"] ;
89 -> 665 ;
666 [label="gini = 0.0\nsamples = 21\nvalue = [21, 0]\nclass = ham", fillcolor="#e58139"] ;
88 -> 666 ;
667 [label="gini = 0.0\nsamples = 21\nvalue = [21, 0]\nclass = ham", fillcolor="#e58139"] ;
87 -> 667 ;
668 [label="gini = 0.0\nsamples = 23\nvalue = [23, 0]\nclass = ham", fillcolor="#e58139"] ;
86 -> 668 ;
669 [label="gini = 0.0\nsamples = 23\nvalue = [23, 0]\nclass = ham", fillcolor="#e58139"] ;
85 -> 669 ;
670 [label="gini = 0.0\nsamples = 24\nvalue = [24, 0]\nclass = ham", fillcolor="#e58139"] ;
84 -> 670 ;
671 [label="gini = 0.0\nsamples = 25\nvalue = [25, 0]\nclass = ham", fillcolor="#e58139"] ;
83 -> 671 ;
672 [label="gini = 0.0\nsamples = 25\nvalue = [25, 0]\nclass = ham", fillcolor="#e58139"] ;
82 -> 672 ;
673 [label="gini = 0.0\nsamples = 26\nvalue = [26, 0]\nclass = ham", fillcolor="#e58139"] ;
81 -> 673 ;
674 [label="gini = 0.0\nsamples = 27\nvalue = [27, 0]\nclass = ham", fillcolor="#e58139"] ;
80 -> 674 ;
675 [label="gini = 0.0\nsamples = 27\nvalue = [27, 0]\nclass = ham", fillcolor="#e58139"] ;
79 -> 675 ;
676 [label="gini = 0.0\nsamples = 29\nvalue = [29, 0]\nclass = ham", fillcolor="#e58139"] ;
78 -> 676 ;
677 [label="gini = 0.0\nsamples = 29\nvalue = [29, 0]\nclass = ham", fillcolor="#e58139"] ;
77 -> 677 ;
678 [label="gini = 0.0\nsamples = 30\nvalue = [30, 0]\nclass = ham", fillcolor="#e58139"] ;
76 -> 678 ;
679 [label="gini = 0.0\nsamples = 35\nvalue = [35, 0]\nclass = ham", fillcolor="#e58139"] ;
75 -> 679 ;
680 [label="gini = 0.0\nsamples = 37\nvalue = [37, 0]\nclass = ham", fillcolor="#e58139"] ;
74 -> 680 ;
681 [label="gini = 0.0\nsamples = 43\nvalue = [43, 0]\nclass = ham", fillcolor="#e58139"] ;
73 -> 681 ;
682 [label="gini = 0.0\nsamples = 50\nvalue = [50, 0]\nclass = ham", fillcolor="#e58139"] ;
72 -> 682 ;
683 [label="gini = 0.0\nsamples = 53\nvalue = [53, 0]\nclass = ham", fillcolor="#e58139"] ;
71 -> 683 ;
684 [label="gini = 0.0\nsamples = 57\nvalue = [57, 0]\nclass = ham", fillcolor="#e58139"] ;
70 -> 684 ;
685 [label="gini = 0.0\nsamples = 60\nvalue = [60, 0]\nclass = ham", fillcolor="#e58139"] ;
69 -> 685 ;
686 [label="gini = 0.0\nsamples = 65\nvalue = [65, 0]\nclass = ham", fillcolor="#e58139"] ;
68 -> 686 ;
687 [label="gini = 0.0\nsamples = 67\nvalue = [67, 0]\nclass = ham", fillcolor="#e58139"] ;
67 -> 687 ;
688 [label="gini = 0.0\nsamples = 74\nvalue = [74, 0]\nclass = ham", fillcolor="#e58139"] ;
66 -> 688 ;
689 [label="gini = 0.0\nsamples = 76\nvalue = [76, 0]\nclass = ham", fillcolor="#e58139"] ;
65 -> 689 ;
690 [label="gini = 0.0\nsamples = 88\nvalue = [88, 0]\nclass = ham", fillcolor="#e58139"] ;
64 -> 690 ;
691 [label="gini = 0.0\nsamples = 92\nvalue = [92, 0]\nclass = ham", fillcolor="#e58139"] ;
63 -> 691 ;
692 [label="gini = 0.0\nsamples = 104\nvalue = [104, 0]\nclass = ham", fillcolor="#e58139"] ;
62 -> 692 ;
693 [label="gini = 0.0\nsamples = 115\nvalue = [115, 0]\nclass = ham", fillcolor="#e58139"] ;
61 -> 693 ;
694 [label="gini = 0.0\nsamples = 127\nvalue = [127, 0]\nclass = ham", fillcolor="#e58139"] ;
60 -> 694 ;
695 [label="gini = 0.0\nsamples = 147\nvalue = [147, 0]\nclass = ham", fillcolor="#e58139"] ;
59 -> 695 ;
696 [label="gini = 0.0\nsamples = 161\nvalue = [161, 0]\nclass = ham", fillcolor="#e58139"] ;
58 -> 696 ;
697 [label="gini = 0.0\nsamples = 167\nvalue = [167, 0]\nclass = ham", fillcolor="#e58139"] ;
57 -> 697 ;
698 [label="gini = 0.0\nsamples = 187\nvalue = [187, 0]\nclass = ham", fillcolor="#e58139"] ;
56 -> 698 ;
699 [label="gini = 0.0\nsamples = 216\nvalue = [216, 0]\nclass = ham", fillcolor="#e58139"] ;
55 -> 699 ;
700 [label="chase <= 0.244\ngini = 0.444\nsamples = 3\nvalue = [2, 1]\nclass = ham", fillcolor="#f2c09c"] ;
54 -> 700 ;
701 [label="gini = 0.0\nsamples = 2\nvalue = [2, 0]\nclass = ham", fillcolor="#e58139"] ;
700 -> 701 ;
702 [label="gini = 0.0\nsamples = 1\nvalue = [0, 1]\nclass = spam", fillcolor="#399de5"] ;
700 -> 702 ;
703 [label="sorri <= 0.312\ngini = 0.444\nsamples = 3\nvalue = [2, 1]\nclass = ham", fillcolor="#f2c09c"] ;
53 -> 703 ;
704 [label="gini = 0.0\nsamples = 1\nvalue = [0, 1]\nclass = spam", fillcolor="#399de5"] ;
703 -> 704 ;
705 [label="gini = 0.0\nsamples = 2\nvalue = [2, 0]\nclass = ham", fillcolor="#e58139"] ;
703 -> 705 ;
706 [label="get <= 0.174\ngini = 0.5\nsamples = 2\nvalue = [1, 1]\nclass = ham", fillcolor="#ffffff"] ;
52 -> 706 ;
707 [label="gini = 0.0\nsamples = 1\nvalue = [0, 1]\nclass = spam", fillcolor="#399de5"] ;
706 -> 707 ;
708 [label="gini = 0.0\nsamples = 1\nvalue = [1, 0]\nclass = ham", fillcolor="#e58139"] ;
706 -> 708 ;
709 [label="think <= 0.113\ngini = 0.5\nsamples = 2\nvalue = [1, 1]\nclass = ham", fillcolor="#ffffff"] ;
51 -> 709 ;
710 [label="gini = 0.0\nsamples = 1\nvalue = [0, 1]\nclass = spam", fillcolor="#399de5"] ;
709 -> 710 ;
711 [label="gini = 0.0\nsamples = 1\nvalue = [1, 0]\nclass = ham", fillcolor="#e58139"] ;
709 -> 711 ;
712 [label="bcoz <= 0.264\ngini = 0.5\nsamples = 2\nvalue = [1, 1]\nclass = ham", fillcolor="#ffffff"] ;
50 -> 712 ;
713 [label="gini = 0.0\nsamples = 1\nvalue = [0, 1]\nclass = spam", fillcolor="#399de5"] ;
712 -> 713 ;
714 [label="gini = 0.0\nsamples = 1\nvalue = [1, 0]\nclass = ham", fillcolor="#e58139"] ;
712 -> 714 ;
715 [label="pick <= 0.146\ngini = 0.5\nsamples = 2\nvalue = [1, 1]\nclass = ham", fillcolor="#ffffff"] ;
49 -> 715 ;
716 [label="gini = 0.0\nsamples = 1\nvalue = [1, 0]\nclass = ham", fillcolor="#e58139"] ;
715 -> 716 ;
717 [label="gini = 0.0\nsamples = 1\nvalue = [0, 1]\nclass = spam", fillcolor="#399de5"] ;
715 -> 717 ;
718 [label="come <= 0.175\ngini = 0.5\nsamples = 2\nvalue = [1, 1]\nclass = ham", fillcolor="#ffffff"] ;
48 -> 718 ;
719 [label="gini = 0.0\nsamples = 1\nvalue = [1, 0]\nclass = ham", fillcolor="#e58139"] ;
718 -> 719 ;
720 [label="gini = 0.0\nsamples = 1\nvalue = [0, 1]\nclass = spam", fillcolor="#399de5"] ;
718 -> 720 ;
721 [label="score <= 0.252\ngini = 0.5\nsamples = 2\nvalue = [1, 1]\nclass = ham", fillcolor="#ffffff"] ;
47 -> 721 ;
722 [label="gini = 0.0\nsamples = 1\nvalue = [1, 0]\nclass = ham", fillcolor="#e58139"] ;
721 -> 722 ;
723 [label="gini = 0.0\nsamples = 1\nvalue = [0, 1]\nclass = spam", fillcolor="#399de5"] ;
721 -> 723 ;
724 [label="come <= 0.206\ngini = 0.5\nsamples = 2\nvalue = [1, 1]\nclass = ham", fillcolor="#ffffff"] ;
46 -> 724 ;
725 [label="gini = 0.0\nsamples = 1\nvalue = [0, 1]\nclass = spam", fillcolor="#399de5"] ;
724 -> 725 ;
726 [label="gini = 0.0\nsamples = 1\nvalue = [1, 0]\nclass = ham", fillcolor="#e58139"] ;
724 -> 726 ;
727 [label="gini = 0.0\nsamples = 1\nvalue = [0, 1]\nclass = spam", fillcolor="#399de5"] ;
45 -> 727 ;
728 [label="gini = 0.0\nsamples = 1\nvalue = [0, 1]\nclass = spam", fillcolor="#399de5"] ;
44 -> 728 ;
729 [label="gini = 0.0\nsamples = 1\nvalue = [0, 1]\nclass = spam", fillcolor="#399de5"] ;
43 -> 729 ;
730 [label="gini = 0.0\nsamples = 1\nvalue = [0, 1]\nclass = spam", fillcolor="#399de5"] ;
42 -> 730 ;
731 [label="gini = 0.0\nsamples = 1\nvalue = [0, 1]\nclass = spam", fillcolor="#399de5"] ;
41 -> 731 ;
732 [label="gini = 0.0\nsamples = 1\nvalue = [0, 1]\nclass = spam", fillcolor="#399de5"] ;
40 -> 732 ;
733 [label="gini = 0.0\nsamples = 1\nvalue = [0, 1]\nclass = spam", fillcolor="#399de5"] ;
39 -> 733 ;
734 [label="gini = 0.0\nsamples = 1\nvalue = [0, 1]\nclass = spam", fillcolor="#399de5"] ;
38 -> 734 ;
735 [label="gini = 0.0\nsamples = 1\nvalue = [0, 1]\nclass = spam", fillcolor="#399de5"] ;
37 -> 735 ;
736 [label="gini = 0.0\nsamples = 1\nvalue = [0, 1]\nclass = spam", fillcolor="#399de5"] ;
36 -> 736 ;
737 [label="gini = 0.0\nsamples = 1\nvalue = [0, 1]\nclass = spam", fillcolor="#399de5"] ;
35 -> 737 ;
738 [label="gini = 0.0\nsamples = 1\nvalue = [0, 1]\nclass = spam", fillcolor="#399de5"] ;
34 -> 738 ;
739 [label="gini = 0.0\nsamples = 1\nvalue = [0, 1]\nclass = spam", fillcolor="#399de5"] ;
33 -> 739 ;
740 [label="gini = 0.0\nsamples = 1\nvalue = [0, 1]\nclass = spam", fillcolor="#399de5"] ;
32 -> 740 ;
741 [label="gini = 0.0\nsamples = 1\nvalue = [0, 1]\nclass = spam", fillcolor="#399de5"] ;
31 -> 741 ;
742 [label="gini = 0.0\nsamples = 1\nvalue = [0, 1]\nclass = spam", fillcolor="#399de5"] ;
30 -> 742 ;
743 [label="gini = 0.0\nsamples = 1\nvalue = [0, 1]\nclass = spam", fillcolor="#399de5"] ;
29 -> 743 ;
744 [label="gini = 0.0\nsamples = 1\nvalue = [0, 1]\nclass = spam", fillcolor="#399de5"] ;
28 -> 744 ;
745 [label="heart <= 0.208\ngini = 0.444\nsamples = 3\nvalue = [1, 2]\nclass = spam", fillcolor="#9ccef2"] ;
27 -> 745 ;
746 [label="gini = 0.0\nsamples = 2\nvalue = [0, 2]\nclass = spam", fillcolor="#399de5"] ;
745 -> 746 ;
747 [label="gini = 0.0\nsamples = 1\nvalue = [1, 0]\nclass = ham", fillcolor="#e58139"] ;
745 -> 747 ;
748 [label="gini = 0.0\nsamples = 2\nvalue = [0, 2]\nclass = spam", fillcolor="#399de5"] ;
26 -> 748 ;
749 [label="gini = 0.0\nsamples = 2\nvalue = [0, 2]\nclass = spam", fillcolor="#399de5"] ;
25 -> 749 ;
750 [label="gini = 0.0\nsamples = 2\nvalue = [0, 2]\nclass = spam", fillcolor="#399de5"] ;
24 -> 750 ;
751 [label="gini = 0.0\nsamples = 2\nvalue = [0, 2]\nclass = spam", fillcolor="#399de5"] ;
23 -> 751 ;
752 [label="gini = 0.0\nsamples = 2\nvalue = [0, 2]\nclass = spam", fillcolor="#399de5"] ;
22 -> 752 ;
753 [label="gt <= 0.107\ngini = 0.469\nsamples = 8\nvalue = [3, 5]\nclass = spam", fillcolor="#b0d8f5"] ;
21 -> 753 ;
754 [label="com <= 0.31\ngini = 0.408\nsamples = 7\nvalue = [2, 5]\nclass = spam", fillcolor="#88c4ef"] ;
753 -> 754 ;
755 [label="gini = 0.0\nsamples = 4\nvalue = [0, 4]\nclass = spam", fillcolor="#399de5"] ;
754 -> 755 ;
756 [label="welcom <= 0.242\ngini = 0.444\nsamples = 3\nvalue = [2, 1]\nclass = ham", fillcolor="#f2c09c"] ;
754 -> 756 ;
757 [label="gini = 0.0\nsamples = 2\nvalue = [2, 0]\nclass = ham", fillcolor="#e58139"] ;
756 -> 757 ;
758 [label="gini = 0.0\nsamples = 1\nvalue = [0, 1]\nclass = spam", fillcolor="#399de5"] ;
756 -> 758 ;
759 [label="gini = 0.0\nsamples = 1\nvalue = [1, 0]\nclass = ham", fillcolor="#e58139"] ;
753 -> 759 ;
760 [label="current <= 0.585\ngini = 0.408\nsamples = 7\nvalue = [2, 5]\nclass = spam", fillcolor="#88c4ef"] ;
20 -> 760 ;
761 [label="gini = 0.0\nsamples = 5\nvalue = [0, 5]\nclass = spam", fillcolor="#399de5"] ;
760 -> 761 ;
762 [label="gini = 0.0\nsamples = 2\nvalue = [2, 0]\nclass = ham", fillcolor="#e58139"] ;
760 -> 762 ;
763 [label="special <= 0.133\ngini = 0.451\nsamples = 32\nvalue = [21, 11]\nclass = ham", fillcolor="#f3c3a1"] ;
19 -> 763 ;
764 [label="prize <= 0.137\ngini = 0.4\nsamples = 29\nvalue = [21, 8]\nclass = ham", fillcolor="#efb184"] ;
763 -> 764 ;
765 [label="xx <= 0.188\ngini = 0.311\nsamples = 26\nvalue = [21, 5]\nclass = ham", fillcolor="#eb9f68"] ;
764 -> 765 ;
766 [label="repli <= 0.145\ngini = 0.219\nsamples = 24\nvalue = [21, 3]\nclass = ham", fillcolor="#e99355"] ;
765 -> 766 ;
767 [label="wot <= 0.253\ngini = 0.087\nsamples = 22\nvalue = [21, 1]\nclass = ham", fillcolor="#e68742"] ;
766 -> 767 ;
768 [label="gini = 0.0\nsamples = 21\nvalue = [21, 0]\nclass = ham", fillcolor="#e58139"] ;
767 -> 768 ;
769 [label="gini = 0.0\nsamples = 1\nvalue = [0, 1]\nclass = spam", fillcolor="#399de5"] ;
767 -> 769 ;
770 [label="gini = 0.0\nsamples = 2\nvalue = [0, 2]\nclass = spam", fillcolor="#399de5"] ;
766 -> 770 ;
771 [label="gini = 0.0\nsamples = 2\nvalue = [0, 2]\nclass = spam", fillcolor="#399de5"] ;
765 -> 771 ;
772 [label="gini = 0.0\nsamples = 3\nvalue = [0, 3]\nclass = spam", fillcolor="#399de5"] ;
764 -> 772 ;
773 [label="gini = 0.0\nsamples = 3\nvalue = [0, 3]\nclass = spam", fillcolor="#399de5"] ;
763 -> 773 ;
774 [label="gini = 0.0\nsamples = 4\nvalue = [0, 4]\nclass = spam", fillcolor="#399de5"] ;
18 -> 774 ;
775 [label="gini = 0.0\nsamples = 4\nvalue = [0, 4]\nclass = spam", fillcolor="#399de5"] ;
17 -> 775 ;
776 [label="chat <= 0.359\ngini = 0.499\nsamples = 21\nvalue = [11, 10]\nclass = ham", fillcolor="#fdf4ed"] ;
16 -> 776 ;
777 [label="good <= 0.093\ngini = 0.298\nsamples = 11\nvalue = [2, 9]\nclass = spam", fillcolor="#65b3eb"] ;
776 -> 777 ;
778 [label="friend <= 0.11\ngini = 0.18\nsamples = 10\nvalue = [1, 9]\nclass = spam", fillcolor="#4fa8e8"] ;
777 -> 778 ;
779 [label="gini = 0.0\nsamples = 9\nvalue = [0, 9]\nclass = spam", fillcolor="#399de5"] ;
778 -> 779 ;
780 [label="gini = 0.0\nsamples = 1\nvalue = [1, 0]\nclass = ham", fillcolor="#e58139"] ;
778 -> 780 ;
781 [label="gini = 0.0\nsamples = 1\nvalue = [1, 0]\nclass = ham", fillcolor="#e58139"] ;
777 -> 781 ;
782 [label="pic <= 0.13\ngini = 0.18\nsamples = 10\nvalue = [9, 1]\nclass = ham", fillcolor="#e88f4f"] ;
776 -> 782 ;
783 [label="gini = 0.0\nsamples = 9\nvalue = [9, 0]\nclass = ham", fillcolor="#e58139"] ;
782 -> 783 ;
784 [label="gini = 0.0\nsamples = 1\nvalue = [0, 1]\nclass = spam", fillcolor="#399de5"] ;
782 -> 784 ;
785 [label="gini = 0.0\nsamples = 5\nvalue = [0, 5]\nclass = spam", fillcolor="#399de5"] ;
15 -> 785 ;
786 [label="gini = 0.0\nsamples = 5\nvalue = [0, 5]\nclass = spam", fillcolor="#399de5"] ;
14 -> 786 ;
787 [label="gini = 0.0\nsamples = 7\nvalue = [0, 7]\nclass = spam", fillcolor="#399de5"] ;
13 -> 787 ;
788 [label="gini = 0.0\nsamples = 7\nvalue = [0, 7]\nclass = spam", fillcolor="#399de5"] ;
12 -> 788 ;
789 [label="congrat <= 0.116\ngini = 0.493\nsamples = 25\nvalue = [11, 14]\nclass = spam", fillcolor="#d5eaf9"] ;
11 -> 789 ;
790 [label="receiv <= 0.137\ngini = 0.488\nsamples = 19\nvalue = [11, 8]\nclass = ham", fillcolor="#f8ddc9"] ;
789 -> 790 ;
791 [label="win <= 0.112\ngini = 0.43\nsamples = 16\nvalue = [11, 5]\nclass = ham", fillcolor="#f1ba93"] ;
790 -> 791 ;
792 [label="club <= 0.207\ngini = 0.337\nsamples = 14\nvalue = [11, 3]\nclass = ham", fillcolor="#eca36f"] ;
791 -> 792 ;
793 [label="buy <= 0.236\ngini = 0.153\nsamples = 12\nvalue = [11, 1]\nclass = ham", fillcolor="#e78c4b"] ;
792 -> 793 ;
794 [label="gini = 0.0\nsamples = 11\nvalue = [11, 0]\nclass = ham", fillcolor="#e58139"] ;
793 -> 794 ;
795 [label="gini = 0.0\nsamples = 1\nvalue = [0, 1]\nclass = spam", fillcolor="#399de5"] ;
793 -> 795 ;
796 [label="gini = 0.0\nsamples = 2\nvalue = [0, 2]\nclass = spam", fillcolor="#399de5"] ;
792 -> 796 ;
797 [label="gini = 0.0\nsamples = 2\nvalue = [0, 2]\nclass = spam", fillcolor="#399de5"] ;
791 -> 797 ;
798 [label="gini = 0.0\nsamples = 3\nvalue = [0, 3]\nclass = spam", fillcolor="#399de5"] ;
790 -> 798 ;
799 [label="gini = 0.0\nsamples = 6\nvalue = [0, 6]\nclass = spam", fillcolor="#399de5"] ;
789 -> 799 ;
800 [label="gini = 0.0\nsamples = 8\nvalue = [0, 8]\nclass = spam", fillcolor="#399de5"] ;
10 -> 800 ;
801 [label="current <= 0.24\ngini = 0.18\nsamples = 10\nvalue = [1, 9]\nclass = spam", fillcolor="#4fa8e8"] ;
9 -> 801 ;
802 [label="gini = 0.0\nsamples = 9\nvalue = [0, 9]\nclass = spam", fillcolor="#399de5"] ;
801 -> 802 ;
803 [label="gini = 0.0\nsamples = 1\nvalue = [1, 0]\nclass = ham", fillcolor="#e58139"] ;
801 -> 803 ;
804 [label="ask <= 0.128\ngini = 0.165\nsamples = 11\nvalue = [1, 10]\nclass = spam", fillcolor="#4da7e8"] ;
8 -> 804 ;
805 [label="gini = 0.0\nsamples = 10\nvalue = [0, 10]\nclass = spam", fillcolor="#399de5"] ;
804 -> 805 ;
806 [label="gini = 0.0\nsamples = 1\nvalue = [1, 0]\nclass = ham", fillcolor="#e58139"] ;
804 -> 806 ;
807 [label="account <= 0.143\ngini = 0.153\nsamples = 12\nvalue = [1, 11]\nclass = spam", fillcolor="#4ba6e7"] ;
7 -> 807 ;
808 [label="gini = 0.0\nsamples = 1\nvalue = [1, 0]\nclass = ham", fillcolor="#e58139"] ;
807 -> 808 ;
809 [label="gini = 0.0\nsamples = 11\nvalue = [0, 11]\nclass = spam", fillcolor="#399de5"] ;
807 -> 809 ;
810 [label="text <= 0.208\ngini = 0.489\nsamples = 96\nvalue = [55, 41]\nclass = ham", fillcolor="#f8dfcd"] ;
6 -> 810 ;
811 [label="abiola <= 0.182\ngini = 0.346\nsamples = 27\nvalue = [6, 21]\nclass = spam", fillcolor="#72b9ec"] ;
810 -> 811 ;
812 [label="ve <= 0.104\ngini = 0.269\nsamples = 25\nvalue = [4, 21]\nclass = spam", fillcolor="#5fb0ea"] ;
811 -> 812 ;
813 [label="home <= 0.094\ngini = 0.159\nsamples = 23\nvalue = [2, 21]\nclass = spam", fillcolor="#4ca6e7"] ;
812 -> 813 ;
814 [label="gini = 0.0\nsamples = 21\nvalue = [0, 21]\nclass = spam", fillcolor="#399de5"] ;
813 -> 814 ;
815 [label="gini = 0.0\nsamples = 2\nvalue = [2, 0]\nclass = ham", fillcolor="#e58139"] ;
813 -> 815 ;
816 [label="gini = 0.0\nsamples = 2\nvalue = [2, 0]\nclass = ham", fillcolor="#e58139"] ;
812 -> 816 ;
817 [label="gini = 0.0\nsamples = 2\nvalue = [2, 0]\nclass = ham", fillcolor="#e58139"] ;
811 -> 817 ;
818 [label="stop <= 0.096\ngini = 0.412\nsamples = 69\nvalue = [49, 20]\nclass = ham", fillcolor="#f0b48a"] ;
810 -> 818 ;
819 [label="cost <= 0.148\ngini = 0.363\nsamples = 63\nvalue = [48, 15]\nclass = ham", fillcolor="#eda877"] ;
818 -> 819 ;
820 [label="oz <= 0.243\ngini = 0.32\nsamples = 60\nvalue = [48, 12]\nclass = ham", fillcolor="#eca06a"] ;
819 -> 820 ;
821 [label="week <= 0.073\ngini = 0.285\nsamples = 58\nvalue = [48, 10]\nclass = ham", fillcolor="#ea9b62"] ;
820 -> 821 ;
822 [label="ur <= 0.106\ngini = 0.245\nsamples = 56\nvalue = [48, 8]\nclass = ham", fillcolor="#e9965a"] ;
821 -> 822 ;
823 [label="year <= 0.137\ngini = 0.198\nsamples = 54\nvalue = [48, 6]\nclass = ham", fillcolor="#e89152"] ;
822 -> 823 ;
824 [label="age <= 0.43\ngini = 0.171\nsamples = 53\nvalue = [48, 5]\nclass = ham", fillcolor="#e88e4e"] ;
823 -> 824 ;
825 [label="word <= 0.416\ngini = 0.142\nsamples = 52\nvalue = [48, 4]\nclass = ham", fillcolor="#e78c49"] ;
824 -> 825 ;
826 [label="msgs <= 0.205\ngini = 0.111\nsamples = 51\nvalue = [48, 3]\nclass = ham", fillcolor="#e78945"] ;
825 -> 826 ;
827 [label="support <= 0.334\ngini = 0.077\nsamples = 50\nvalue = [48, 2]\nclass = ham", fillcolor="#e68641"] ;
826 -> 827 ;
828 [label="text <= 0.815\ngini = 0.04\nsamples = 49\nvalue = [48, 1]\nclass = ham", fillcolor="#e6843d"] ;
827 -> 828 ;
829 [label="gini = 0.0\nsamples = 48\nvalue = [48, 0]\nclass = ham", fillcolor="#e58139"] ;
828 -> 829 ;
830 [label="gini = 0.0\nsamples = 1\nvalue = [0, 1]\nclass = spam", fillcolor="#399de5"] ;
828 -> 830 ;
831 [label="gini = 0.0\nsamples = 1\nvalue = [0, 1]\nclass = spam", fillcolor="#399de5"] ;
827 -> 831 ;
832 [label="gini = 0.0\nsamples = 1\nvalue = [0, 1]\nclass = spam", fillcolor="#399de5"] ;
826 -> 832 ;
833 [label="gini = 0.0\nsamples = 1\nvalue = [0, 1]\nclass = spam", fillcolor="#399de5"] ;
825 -> 833 ;
834 [label="gini = 0.0\nsamples = 1\nvalue = [0, 1]\nclass = spam", fillcolor="#399de5"] ;
824 -> 834 ;
835 [label="gini = 0.0\nsamples = 1\nvalue = [0, 1]\nclass = spam", fillcolor="#399de5"] ;
823 -> 835 ;
836 [label="gini = 0.0\nsamples = 2\nvalue = [0, 2]\nclass = spam", fillcolor="#399de5"] ;
822 -> 836 ;
837 [label="gini = 0.0\nsamples = 2\nvalue = [0, 2]\nclass = spam", fillcolor="#399de5"] ;
821 -> 837 ;
838 [label="gini = 0.0\nsamples = 2\nvalue = [0, 2]\nclass = spam", fillcolor="#399de5"] ;
820 -> 838 ;
839 [label="gini = 0.0\nsamples = 3\nvalue = [0, 3]\nclass = spam", fillcolor="#399de5"] ;
819 -> 839 ;
840 [label="work <= 0.17\ngini = 0.278\nsamples = 6\nvalue = [1, 5]\nclass = spam", fillcolor="#61b1ea"] ;
818 -> 840 ;
841 [label="gini = 0.0\nsamples = 5\nvalue = [0, 5]\nclass = spam", fillcolor="#399de5"] ;
840 -> 841 ;
842 [label="gini = 0.0\nsamples = 1\nvalue = [1, 0]\nclass = ham", fillcolor="#e58139"] ;
840 -> 842 ;
843 [label="box <= 0.376\ngini = 0.202\nsamples = 35\nvalue = [4, 31]\nclass = spam", fillcolor="#53aae8"] ;
5 -> 843 ;
844 [label="lor <= 0.118\ngini = 0.061\nsamples = 32\nvalue = [1, 31]\nclass = spam", fillcolor="#3fa0e6"] ;
843 -> 844 ;
845 [label="gini = 0.0\nsamples = 31\nvalue = [0, 31]\nclass = spam", fillcolor="#399de5"] ;
844 -> 845 ;
846 [label="gini = 0.0\nsamples = 1\nvalue = [1, 0]\nclass = ham", fillcolor="#e58139"] ;
844 -> 846 ;
847 [label="gini = 0.0\nsamples = 3\nvalue = [3, 0]\nclass = ham", fillcolor="#e58139"] ;
843 -> 847 ;
848 [label="add <= 0.126\ngini = 0.059\nsamples = 33\nvalue = [1, 32]\nclass = spam", fillcolor="#3fa0e6"] ;
4 -> 848 ;
849 [label="gini = 0.0\nsamples = 32\nvalue = [0, 32]\nclass = spam", fillcolor="#399de5"] ;
848 -> 849 ;
850 [label="gini = 0.0\nsamples = 1\nvalue = [1, 0]\nclass = ham", fillcolor="#e58139"] ;
848 -> 850 ;
851 [label="listen <= 0.199\ngini = 0.091\nsamples = 42\nvalue = [2, 40]\nclass = spam", fillcolor="#43a2e6"] ;
3 -> 851 ;
852 [label="cum <= 0.199\ngini = 0.048\nsamples = 41\nvalue = [1, 40]\nclass = spam", fillcolor="#3e9fe6"] ;
851 -> 852 ;
853 [label="gini = 0.0\nsamples = 40\nvalue = [0, 40]\nclass = spam", fillcolor="#399de5"] ;
852 -> 853 ;
854 [label="gini = 0.0\nsamples = 1\nvalue = [1, 0]\nclass = ham", fillcolor="#e58139"] ;
852 -> 854 ;
855 [label="gini = 0.0\nsamples = 1\nvalue = [1, 0]\nclass = ham", fillcolor="#e58139"] ;
851 -> 855 ;
856 [label="text <= 0.069\ngini = 0.444\nsamples = 108\nvalue = [36, 72]\nclass = spam", fillcolor="#9ccef2"] ;
2 -> 856 ;
857 [label="free <= 0.171\ngini = 0.489\nsamples = 82\nvalue = [35, 47]\nclass = spam", fillcolor="#cce6f8"] ;
856 -> 857 ;
858 [label="haha <= 0.11\ngini = 0.111\nsamples = 17\nvalue = [1, 16]\nclass = spam", fillcolor="#45a3e7"] ;
857 -> 858 ;
859 [label="gini = 0.0\nsamples = 16\nvalue = [0, 16]\nclass = spam", fillcolor="#399de5"] ;
858 -> 859 ;
860 [label="gini = 0.0\nsamples = 1\nvalue = [1, 0]\nclass = ham", fillcolor="#e58139"] ;
858 -> 860 ;
861 [label="updat <= 0.124\ngini = 0.499\nsamples = 65\nvalue = [34, 31]\nclass = ham", fillcolor="#fdf4ee"] ;
857 -> 861 ;
862 [label="repli <= 0.079\ngini = 0.488\nsamples = 59\nvalue = [34, 25]\nclass = ham", fillcolor="#f8decb"] ;
861 -> 862 ;
863 [label="send <= 0.08\ngini = 0.44\nsamples = 46\nvalue = [31, 15]\nclass = ham", fillcolor="#f2be99"] ;
862 -> 863 ;
864 [label="special <= 0.134\ngini = 0.355\nsamples = 39\nvalue = [30, 9]\nclass = ham", fillcolor="#eda774"] ;
863 -> 864 ;
865 [label="servic <= 0.166\ngini = 0.278\nsamples = 36\nvalue = [30, 6]\nclass = ham", fillcolor="#ea9a61"] ;
864 -> 865 ;
866 [label="optout <= 0.13\ngini = 0.208\nsamples = 34\nvalue = [30, 4]\nclass = ham", fillcolor="#e89253"] ;
865 -> 866 ;
867 [label="uk <= 0.164\ngini = 0.117\nsamples = 32\nvalue = [30, 2]\nclass = ham", fillcolor="#e78946"] ;
866 -> 867 ;
868 [label="current <= 0.176\ngini = 0.062\nsamples = 31\nvalue = [30, 1]\nclass = ham", fillcolor="#e68540"] ;
867 -> 868 ;
869 [label="gini = 0.0\nsamples = 30\nvalue = [30, 0]\nclass = ham", fillcolor="#e58139"] ;
868 -> 869 ;
870 [label="gini = 0.0\nsamples = 1\nvalue = [0, 1]\nclass = spam", fillcolor="#399de5"] ;
868 -> 870 ;
871 [label="gini = 0.0\nsamples = 1\nvalue = [0, 1]\nclass = spam", fillcolor="#399de5"] ;
867 -> 871 ;
872 [label="gini = 0.0\nsamples = 2\nvalue = [0, 2]\nclass = spam", fillcolor="#399de5"] ;
866 -> 872 ;
873 [label="gini = 0.0\nsamples = 2\nvalue = [0, 2]\nclass = spam", fillcolor="#399de5"] ;
865 -> 873 ;
874 [label="gini = 0.0\nsamples = 3\nvalue = [0, 3]\nclass = spam", fillcolor="#399de5"] ;
864 -> 874 ;
875 [label="remov <= 0.169\ngini = 0.245\nsamples = 7\nvalue = [1, 6]\nclass = spam", fillcolor="#5aade9"] ;
863 -> 875 ;
876 [label="gini = 0.0\nsamples = 6\nvalue = [0, 6]\nclass = spam", fillcolor="#399de5"] ;
875 -> 876 ;
877 [label="gini = 0.0\nsamples = 1\nvalue = [1, 0]\nclass = ham", fillcolor="#e58139"] ;
875 -> 877 ;
878 [label="know <= 0.111\ngini = 0.355\nsamples = 13\nvalue = [3, 10]\nclass = spam", fillcolor="#74baed"] ;
862 -> 878 ;
879 [label="want <= 0.116\ngini = 0.165\nsamples = 11\nvalue = [1, 10]\nclass = spam", fillcolor="#4da7e8"] ;
878 -> 879 ;
880 [label="gini = 0.0\nsamples = 10\nvalue = [0, 10]\nclass = spam", fillcolor="#399de5"] ;
879 -> 880 ;
